{
  "num_kernels": 84,
  "num_dilations": 9,
  "num_features": 840,
  "num_classes": 3,
  "time_series_length": 251,
  "kernel_indices": [
    [
      0,
      1,
      2
    ],
    [
      0,
      1,
      3
    ],
    [
      0,
      1,
      4
    ],
    [
      0,
      1,
      5
    ],
    [
      0,
      1,
      6
    ],
    [
      0,
      1,
      7
    ],
    [
      0,
      1,
      8
    ],
    [
      0,
      2,
      3
    ],
    [
      0,
      2,
      4
    ],
    [
      0,
      2,
      5
    ],
    [
      0,
      2,
      6
    ],
    [
      0,
      2,
      7
    ],
    [
      0,
      2,
      8
    ],
    [
      0,
      3,
      4
    ],
    [
      0,
      3,
      5
    ],
    [
      0,
      3,
      6
    ],
    [
      0,
      3,
      7
    ],
    [
      0,
      3,
      8
    ],
    [
      0,
      4,
      5
    ],
    [
      0,
      4,
      6
    ],
    [
      0,
      4,
      7
    ],
    [
      0,
      4,
      8
    ],
    [
      0,
      5,
      6
    ],
    [
      0,
      5,
      7
    ],
    [
      0,
      5,
      8
    ],
    [
      0,
      6,
      7
    ],
    [
      0,
      6,
      8
    ],
    [
      0,
      7,
      8
    ],
    [
      1,
      2,
      3
    ],
    [
      1,
      2,
      4
    ],
    [
      1,
      2,
      5
    ],
    [
      1,
      2,
      6
    ],
    [
      1,
      2,
      7
    ],
    [
      1,
      2,
      8
    ],
    [
      1,
      3,
      4
    ],
    [
      1,
      3,
      5
    ],
    [
      1,
      3,
      6
    ],
    [
      1,
      3,
      7
    ],
    [
      1,
      3,
      8
    ],
    [
      1,
      4,
      5
    ],
    [
      1,
      4,
      6
    ],
    [
      1,
      4,
      7
    ],
    [
      1,
      4,
      8
    ],
    [
      1,
      5,
      6
    ],
    [
      1,
      5,
      7
    ],
    [
      1,
      5,
      8
    ],
    [
      1,
      6,
      7
    ],
    [
      1,
      6,
      8
    ],
    [
      1,
      7,
      8
    ],
    [
      2,
      3,
      4
    ],
    [
      2,
      3,
      5
    ],
    [
      2,
      3,
      6
    ],
    [
      2,
      3,
      7
    ],
    [
      2,
      3,
      8
    ],
    [
      2,
      4,
      5
    ],
    [
      2,
      4,
      6
    ],
    [
      2,
      4,
      7
    ],
    [
      2,
      4,
      8
    ],
    [
      2,
      5,
      6
    ],
    [
      2,
      5,
      7
    ],
    [
      2,
      5,
      8
    ],
    [
      2,
      6,
      7
    ],
    [
      2,
      6,
      8
    ],
    [
      2,
      7,
      8
    ],
    [
      3,
      4,
      5
    ],
    [
      3,
      4,
      6
    ],
    [
      3,
      4,
      7
    ],
    [
      3,
      4,
      8
    ],
    [
      3,
      5,
      6
    ],
    [
      3,
      5,
      7
    ],
    [
      3,
      5,
      8
    ],
    [
      3,
      6,
      7
    ],
    [
      3,
      6,
      8
    ],
    [
      3,
      7,
      8
    ],
    [
      4,
      5,
      6
    ],
    [
      4,
      5,
      7
    ],
    [
      4,
      5,
      8
    ],
    [
      4,
      6,
      7
    ],
    [
      4,
      6,
      8
    ],
    [
      4,
      7,
      8
    ],
    [
      5,
      6,
      7
    ],
    [
      5,
      6,
      8
    ],
    [
      5,
      7,
      8
    ],
    [
      6,
      7,
      8
    ]
  ],
  "dilations": [
    1,
    2,
    3,
    4,
    6,
    9,
    14,
    21,
    31
  ],
  "num_features_per_dilation": [
    2,
    1,
    1,
    1,
    1,
    1,
    1,
    1,
    1
  ],
  "biases": [
    0.6945873498916626,
    -1.1903951168060303,
    1.2408989667892456,
    -0.07428562641143799,
    -1.7735434770584106,
    0.6325060725212097,
    -0.5733229517936707,
    1.842448353767395,
    0.11283310502767563,
    -0.9357268214225769,
    0.7586336135864258,
    -0.17507776618003845,
    -0.9799656867980957,
    0.2574269771575928,
    -0.9541587233543396,
    1.555776834487915,
    -0.013798401691019535,
    -0.9860257506370544,
    0.746181845664978,
    -0.46636107563972473,
    1.6274775266647339,
    0.26077038049697876,
    -0.657036542892456,
    0.8252174854278564,
    -0.10256648808717728,
    -0.735260546207428,
    0.3811618685722351,
    -0.41121014952659607,
    1.2660220861434937,
    0.08120453357696533,
    -0.5395617485046387,
    0.4051734507083893,
    -0.1603728085756302,
    -0.6217479705810547,
    0.06181464344263077,
    -0.14057302474975586,
    0.6126523613929749,
    -0.03507797420024872,
    -0.44999590516090393,
    0.2583673298358917,
    -0.08028541505336761,
    0.32673880457878113,
    0.010504461824893951,
    -0.09907882660627365,
    0.2487863451242447,
    -0.022614218294620514,
    -0.14149023592472076,
    0.03229187801480293,
    -0.13860678672790527,
    0.3009864389896393,
    -0.00031382241286337376,
    -0.21987733244895935,
    0.2734685242176056,
    -0.1556546539068222,
    3.94278621673584,
    0.23481425642967224,
    -0.991433322429657,
    1.3036197423934937,
    -0.08406133949756622,
    -1.191674828529358,
    0.3837054669857025,
    -0.2780855596065521,
    0.7248960137367249,
    0.05509426072239876,
    -0.3780379593372345,
    0.30374711751937866,
    -0.0479380339384079,
    -0.4265449345111847,
    0.28536373376846313,
    -0.519313395023346,
    0.7287981510162354,
    0.009447404183447361,
    -0.46677035093307495,
    0.2579829692840576,
    -0.11542648822069168,
    0.5024296045303345,
    0.024012673646211624,
    -0.11799324303865433,
    0.3774695098400116,
    -0.06010989844799042,
    -0.28686439990997314,
    0.10912802070379257,
    -0.02994658797979355,
    0.07964660972356796,
    0.040447331964969635,
    -0.28658029437065125,
    0.07599902153015137,
    -0.027890494093298912,
    -1.9846209287643433,
    0.0919051393866539,
    -0.27590417861938477,
    0.38307705521583557,
    -0.0177626796066761,
    -0.6121241450309753,
    0.35778719186782837,
    -0.2801589369773865,
    1.4072349071502686,
    0.2609783113002777,
    -0.558463990688324,
    0.48678162693977356,
    -0.09084324538707733,
    -0.7866156101226807,
    0.12475178390741348,
    -0.17597658932209015,
    0.1765180379152298,
    0.0014161770232021809,
    -0.22650094330310822,
    0.12430398166179657,
    -0.052860334515571594,
    0.43466657400131226,
    0.029396651312708855,
    -0.0702815055847168,
    0.16210708022117615,
    -0.01398817915469408,
    -0.5072667002677917,
    0.2334618717432022,
    -0.09550848603248596,
    0.2789830267429352,
    0.06779349595308304,
    -0.7533935308456421,
    0.5138236880302429,
    -0.19409815967082977,
    -1.0069897174835205,
    0.18320252001285553,
    -0.5858115553855896,
    1.1777644157409668,
    -0.07200663536787033,
    -1.347030520439148,
    0.07837331295013428,
    -0.04616424813866615,
    0.5686231255531311,
    0.05983816832304001,
    -0.33814409375190735,
    0.36169588565826416,
    -0.1440885215997696,
    -1.0294556617736816,
    0.35979795455932617,
    -0.38363131880760193,
    0.7652732133865356,
    0.0009426671895198524,
    -0.9292869567871094,
    0.5797715783119202,
    -0.21224842965602875,
    3.7971911430358887,
    0.13586334884166718,
    -0.6714081168174744,
    1.1921998262405396,
    -0.15003801882266998,
    -0.9582801461219788,
    0.3513963520526886,
    -0.4218895137310028,
    1.2744183540344238,
    0.11578185111284256,
    -0.7967796325683594,
    0.8677569627761841,
    -0.2851409912109375,
    -1.6317692995071411,
    0.5888740420341492,
    -0.838363766670227,
    1.6501941680908203,
    0.06360967457294464,
    -1.160188913345337,
    0.858903706073761,
    -0.49674856662750244,
    2.129739999771118,
    0.27898064255714417,
    -1.3825569152832031,
    1.6056184768676758,
    -0.469060480594635,
    -4.211139678955078,
    1.3025248050689697,
    -1.1612091064453125,
    2.576331853866577,
    0.39186161756515503,
    -1.162510871887207,
    2.114238977432251,
    -0.9576801061630249,
    -3.3260936737060547,
    0.7412267923355103,
    -0.8703235983848572,
    1.32213294506073,
    0.017765270546078682,
    -2.2166194915771484,
    0.9399396181106567,
    -0.3536756634712219,
    1.457066535949707,
    0.06370264291763306,
    -0.5720152854919434,
    0.29460129141807556,
    -0.06774333864450455,
    -0.564594566822052,
    0.07636518031358719,
    -0.23616069555282593,
    0.6174933314323425,
    0.0025722484569996595,
    -1.5892033576965332,
    1.6131962537765503,
    -0.9578684568405151,
    3.4764862060546875,
    0.4138113558292389,
    -0.5784870982170105,
    0.5276713967323303,
    -0.1805686205625534,
    -2.330998420715332,
    0.4651746153831482,
    -0.19564701616764069,
    0.2701150178909302,
    0.15923455357551575,
    -0.43752148747444153,
    0.09451204538345337,
    -0.09621850401163101,
    -2.1321780681610107,
    0.1726907193660736,
    -0.5330278277397156,
    0.9281191825866699,
    0.00515155540779233,
    -1.9306895732879639,
    0.7918924689292908,
    -0.25765496492385864,
    0.9257229566574097,
    0.0751555860042572,
    -0.3672422468662262,
    0.7548965811729431,
    -0.014291025698184967,
    -0.8911055326461792,
    0.5038771033287048,
    -0.20304355025291443,
    1.0554455518722534,
    0.05579220876097679,
    -1.2461026906967163,
    1.2327616214752197,
    -0.7512438297271729,
    -6.010289669036865,
    0.22883880138397217,
    -0.9286056160926819,
    1.1420724391937256,
    0.033585235476493835,
    -1.7954893112182617,
    1.0220937728881836,
    -0.9212316870689392,
    2.9570975303649902,
    0.6905873417854309,
    -1.2677992582321167,
    1.8086214065551758,
    -0.5955712199211121,
    -3.892387866973877,
    0.9854625463485718,
    -2.0116019248962402,
    2.680805206298828,
    0.21836672723293304,
    -3.155733108520508,
    2.499030590057373,
    -0.9714176654815674,
    6.191628456115723,
    1.7626327276229858,
    -2.5179736614227295,
    2.1170718669891357,
    -0.1760849803686142,
    -2.4202818870544434,
    1.6572848558425903,
    -1.9026881456375122,
    3.6856257915496826,
    0.3450738191604614,
    -1.7033487558364868,
    1.6802146434783936,
    -0.7251087427139282,
    -3.6937320232391357,
    0.6679925918579102,
    -0.6694618463516235,
    0.9613471627235413,
    -0.03085317090153694,
    -1.1759892702102661,
    0.3064699172973633,
    -0.26827898621559143,
    0.9568689465522766,
    0.02580500766634941,
    -0.8073961734771729,
    0.9060249924659729,
    -0.6960110664367676,
    -2.628325939178467,
    1.5630446672439575,
    -1.9796998500823975,
    2.7862095832824707,
    0.12404374778270721,
    -1.5170843601226807,
    0.539400041103363,
    -0.5428532958030701,
    2.8380439281463623,
    0.5750899910926819,
    -0.41983306407928467,
    0.6061393022537231,
    -0.19980792701244354,
    -1.2187191247940063,
    0.12096454203128815,
    -0.35216188430786133,
    0.5811008214950562,
    0.04890366643667221,
    -1.1573679447174072,
    1.1522786617279053,
    -0.16842681169509888,
    -3.9840445518493652,
    1.3810375928878784,
    -0.7929691076278687,
    1.3425815105438232,
    -0.012730303220450878,
    -0.7546740770339966,
    0.6311485767364502,
    -0.13693073391914368,
    1.3935589790344238,
    0.10912016779184341,
    -0.4752487540245056,
    0.9796027541160583,
    -0.25447341799736023,
    -2.4586215019226074,
    1.2563000917434692,
    -1.2275291681289673,
    1.0057075023651123,
    0.05595281720161438,
    -1.4604214429855347,
    1.0201767683029175,
    -0.3634434640407562,
    -4.7632317543029785,
    0.5766448378562927,
    -1.4565205574035645,
    2.6032328605651855,
    -0.24322965741157532,
    -2.976677179336548,
    1.0516397953033447,
    -1.2549256086349487,
    4.954732894897461,
    0.5308668613433838,
    -3.339766025543213,
    2.684227228164673,
    -0.9287450909614563,
    -5.235256671905518,
    1.8195416927337646,
    -3.26591157913208,
    6.236289978027344,
    0.09703034907579422,
    -4.471907615661621,
    2.6227917671203613,
    -0.5418505668640137,
    7.467288970947266,
    2.1284947395324707,
    -3.0739309787750244,
    2.993825912475586,
    -0.16993173956871033,
    -2.8312113285064697,
    0.9189482927322388,
    -1.6208049058914185,
    3.609086036682129,
    0.5183150172233582,
    -1.4041451215744019,
    0.8822345733642578,
    -0.4601060450077057,
    -2.7324488162994385,
    0.23378777503967285,
    -1.0007143020629883,
    0.8019984364509583,
    -0.08723163604736328,
    -1.3890173435211182,
    0.8297250866889954,
    -0.6184008717536926,
    6.845357894897461,
    0.5648497343063354,
    -4.552040100097656,
    2.7323546409606934,
    -0.35512980818748474,
    -2.132849931716919,
    0.3768579661846161,
    -1.6048035621643066,
    2.587869882583618,
    0.11988392472267151,
    -1.1052457094192505,
    0.4273386597633362,
    -0.48379313945770264,
    1.3952378034591675,
    0.16503584384918213,
    -0.5747498869895935,
    0.792413055896759,
    -0.008054647594690323,
    -1.7127573490142822,
    0.9683119058609009,
    -0.7974448800086975,
    5.548555850982666,
    0.39704495668411255,
    -2.525125026702881,
    0.8345879316329956,
    -0.41462111473083496,
    -1.154972791671753,
    1.2131705284118652,
    -0.463858038187027,
    0.8850996494293213,
    0.06134612113237381,
    -1.7205857038497925,
    0.8977056741714478,
    -0.764301061630249,
    2.7524619102478027,
    0.9356571435928345,
    -2.421280860900879,
    1.0902397632598877,
    0.2127712219953537,
    -2.8142924308776855,
    0.9177772402763367,
    -0.984605073928833,
    2.8931338787078857,
    0.1444934606552124,
    -2.8555524349212646,
    2.5391197204589844,
    -1.233677864074707,
    -8.671503067016602,
    0.9838671684265137,
    -2.4112021923065186,
    2.8427419662475586,
    -0.5143868923187256,
    -5.536317348480225,
    3.2877838611602783,
    -2.3384711742401123,
    8.306504249572754,
    0.5781760215759277,
    -6.560699939727783,
    6.046871662139893,
    -0.5689243078231812,
    -6.611291885375977,
    2.707965612411499,
    -1.9269070625305176,
    6.096253395080566,
    0.4195195138454437,
    -5.392256736755371,
    2.7422149181365967,
    -0.9350464344024658,
    6.577230453491211,
    1.0404565334320068,
    -3.431967258453369,
    3.299051284790039,
    -0.21917328238487244,
    -2.2624824047088623,
    0.8870543837547302,
    -1.5053455829620361,
    1.6683335304260254,
    0.023222412914037704,
    -1.5842477083206177,
    0.6682808995246887,
    -0.6788600087165833,
    -3.5886738300323486,
    1.7457610368728638,
    -2.295957565307617,
    5.652987480163574,
    0.24549205601215363,
    -5.074571132659912,
    2.71213698387146,
    -0.6532767415046692,
    4.2162675857543945,
    0.13145115971565247,
    -3.4497079849243164,
    2.570629358291626,
    -0.3426556885242462,
    -1.4015533924102783,
    0.5641530752182007,
    -1.643631100654602,
    2.0437910556793213,
    0.08185651153326035,
    -1.0916939973831177,
    1.1159381866455078,
    -0.2328352928161621,
    -2.6919405460357666,
    1.030332088470459,
    -1.9393904209136963,
    4.026558876037598,
    -0.2512635886669159,
    -3.9932963848114014,
    1.71077561378479,
    -0.5644437074661255,
    3.684248685836792,
    0.634166419506073,
    -1.7775472402572632,
    1.1553717851638794,
    -0.2722718119621277,
    -4.641201972961426,
    0.7832689881324768,
    -1.3988674879074097,
    2.930637836456299,
    0.4190513789653778,
    -4.786393165588379,
    2.406860828399658,
    -0.860470712184906,
    4.286746978759766,
    0.7290195822715759,
    -2.947913408279419,
    2.7945473194122314,
    0.05569922924041748,
    -4.825320243835449,
    2.125396251678467,
    -2.264775514602661,
    4.130716323852539,
    0.24032743275165558,
    -4.211630821228027,
    3.841616153717041,
    -1.5233349800109863,
    -9.8941068649292,
    1.970197319984436,
    -4.302666664123535,
    6.553525447845459,
    0.5717893838882446,
    -10.140325546264648,
    5.435824394226074,
    -3.0948755741119385,
    5.413106441497803,
    2.168083667755127,
    -5.669954299926758,
    5.167985439300537,
    -1.3094736337661743,
    -6.3005852699279785,
    2.8400559425354004,
    -2.1041319370269775,
    4.3927202224731445,
    0.8951553702354431,
    -3.0234568119049072,
    1.8256770372390747,
    -0.7420828938484192,
    6.3382415771484375,
    1.1605995893478394,
    -2.1226367950439453,
    1.8889944553375244,
    -0.7771108150482178,
    -3.2871508598327637,
    1.2509182691574097,
    -1.3579214811325073,
    4.634760856628418,
    1.0025501251220703,
    -4.5360107421875,
    5.421596527099609,
    -1.726487636566162,
    -8.063566207885742,
    2.312039852142334,
    -2.2219486236572266,
    4.385290145874023,
    -0.3350319564342499,
    -6.269301891326904,
    1.8187003135681152,
    -0.8887072205543518,
    4.247847557067871,
    0.7427006363868713,
    -2.6760618686676025,
    1.6753196716308594,
    -0.048303235322237015,
    -2.8493285179138184,
    1.4696214199066162,
    -0.8014348745346069,
    3.203159809112549,
    0.613126814365387,
    -3.555342197418213,
    4.119885444641113,
    -2.191066026687622,
    -8.330001831054688,
    1.2398735284805298,
    -1.8706445693969727,
    1.7361732721328735,
    -1.5574151277542114,
    -4.4663310050964355,
    0.9502045512199402,
    -0.8033607006072998,
    4.659763336181641,
    0.7898093461990356,
    -2.0170655250549316,
    4.183952808380127,
    -0.5340797305107117,
    -5.661822319030762,
    3.002833604812622,
    -3.6271731853485107,
    3.558772325515747,
    0.029212668538093567,
    -3.800534725189209,
    3.0548157691955566,
    -1.1134580373764038,
    6.508594512939453,
    1.1123685836791992,
    -3.507523536682129,
    5.6078596115112305,
    -0.4398229122161865,
    -6.775197982788086,
    3.988102436065674,
    -3.3361244201660156,
    7.031155586242676,
    1.408458948135376,
    -5.781246185302734,
    5.232277870178223,
    -1.960196614265442,
    -10.724318504333496,
    2.7634963989257812,
    -3.303412675857544,
    2.3434581756591797,
    0.3083982467651367,
    -7.137635707855225,
    3.90207839012146,
    -0.3609066605567932,
    4.310918807983398,
    0.5564520359039307,
    -3.3608975410461426,
    3.9566407203674316,
    -0.3444073498249054,
    -6.441396713256836,
    0.7304507493972778,
    -0.8944374322891235,
    2.805067300796509,
    0.17384113371372223,
    -3.231036901473999,
    1.5936627388000488,
    -0.9813889861106873,
    -4.657458782196045,
    3.0063652992248535,
    -3.4437453746795654,
    3.491713285446167,
    1.0204540491104126,
    -7.581106662750244,
    3.280506134033203,
    -1.4685473442077637,
    6.985604763031006,
    0.9039425849914551,
    -2.814549207687378,
    3.9865469932556152,
    0.3225659430027008,
    -9.238600730895996,
    1.3353568315505981,
    -1.338821530342102,
    3.3646867275238037,
    0.9644191265106201,
    -5.502178192138672,
    1.727370262145996,
    -0.4009113907814026,
    3.1482322216033936,
    0.12309426814317703,
    -2.0720291137695312,
    2.1363894939422607,
    -0.2581644654273987,
    -5.064707279205322,
    3.191955089569092,
    -5.764256954193115,
    7.3553900718688965,
    1.1043046712875366,
    -3.1261661052703857,
    3.8727986812591553,
    -1.163299798965454,
    -4.323988437652588,
    0.6328232884407043,
    -2.055779218673706,
    4.966899394989014,
    0.3758820593357086,
    -2.5731756687164307,
    3.17465877532959,
    -2.0121212005615234,
    5.91219425201416,
    2.539510488510132,
    -4.890167713165283,
    3.289109706878662,
    -1.0786460638046265,
    -6.638363361358643,
    1.8293367624282837,
    -2.2020459175109863,
    4.827784061431885,
    0.06468154489994049,
    -4.693080425262451,
    6.202254295349121,
    -2.5273826122283936,
    6.450825214385986,
    2.206422805786133,
    -4.149815559387207,
    3.2627899646759033,
    0.1574878841638565,
    -7.604101181030273,
    3.520961284637451,
    -4.120669364929199,
    4.7827911376953125,
    0.37341099977493286,
    -4.287275314331055,
    3.6221072673797607,
    -1.5594801902770996,
    -7.0595550537109375,
    -0.4575718641281128,
    -2.2358551025390625,
    2.2141692638397217,
    0.5990769267082214,
    -4.042140960693359,
    2.227444648742676,
    -2.248446464538574,
    8.868833541870117,
    0.7462098598480225,
    -1.4381051063537598,
    6.387792587280273,
    -0.12355488538742065,
    -6.219176292419434,
    2.9914867877960205,
    -2.479668378829956,
    3.1697545051574707,
    1.7583959102630615,
    -5.226123809814453,
    1.7040191888809204,
    -2.4727580547332764,
    -7.530105113983154,
    -1.1579627990722656,
    -4.029038906097412,
    3.9509267807006836,
    -0.2853196859359741,
    -6.211610317230225,
    3.8409640789031982,
    -3.559342622756958,
    6.329701900482178,
    0.9164243340492249,
    -1.8794909715652466,
    3.3605175018310547,
    -0.6816100478172302,
    -5.052920341491699,
    2.0921010971069336,
    -2.382662296295166,
    3.4978559017181396,
    1.4416557550430298,
    -4.521260738372803,
    2.567797899246216,
    -1.9660794734954834,
    4.924797058105469,
    0.9628790616989136,
    -5.193232536315918,
    4.629083633422852,
    -0.8669889569282532,
    -6.708152770996094,
    2.706296682357788,
    -2.2832815647125244,
    4.34234619140625,
    0.28172439336776733,
    -5.097723484039307,
    5.120444297790527,
    -0.5233112573623657,
    -4.479116439819336,
    2.172194004058838,
    -1.6986068487167358,
    6.273979187011719,
    0.08774693310260773,
    -5.697450160980225,
    3.3732728958129883,
    -1.978224515914917,
    5.477112770080566,
    1.6077345609664917,
    -4.06605863571167,
    3.9956164360046387,
    -0.40557625889778137,
    -6.613048076629639,
    4.6937127113342285,
    -3.2288811206817627,
    6.943857669830322,
    0.11759801208972931,
    -2.114720344543457,
    1.6823909282684326,
    -1.560088038444519,
    6.334384441375732,
    0.6308620572090149,
    -3.2922232151031494,
    2.033137798309326,
    0.4594217836856842,
    -6.594089984893799,
    3.8668739795684814,
    -2.449636697769165,
    3.799159526824951,
    0.6995921730995178,
    -2.7075347900390625,
    3.0947318077087402,
    0.3411112129688263,
    -7.231067180633545,
    -0.38384824991226196,
    -2.5820090770721436,
    5.91488790512085,
    0.9877313375473022,
    -7.010687351226807,
    3.143293619155884,
    -0.5419025421142578,
    9.495562553405762,
    0.7364659905433655,
    -3.4868412017822266,
    6.318609714508057,
    -0.48399436473846436,
    -4.375760078430176,
    2.283038377761841,
    -2.0637717247009277,
    4.611914157867432,
    0.38592445850372314,
    -4.075804233551025,
    1.7971315383911133,
    -0.3549821972846985,
    -8.685601234436035,
    -0.7917108535766602,
    -2.4181394577026367,
    3.9459121227264404,
    1.0730994939804077,
    -5.061631202697754,
    1.9354461431503296,
    -2.31010103225708,
    6.243443965911865,
    0.17439693212509155,
    -4.0033674240112305,
    3.0890262126922607,
    -1.9657409191131592,
    -7.0437726974487305,
    2.1605305671691895,
    -3.152090072631836,
    6.084877014160156,
    -0.9351262450218201,
    -3.5986416339874268,
    3.0367014408111572,
    -2.3826708793640137,
    10.236248016357422,
    0.4376275837421417,
    -2.58661150932312,
    2.726048707962036,
    -0.47333475947380066,
    -4.64998197555542,
    4.384143829345703,
    -2.881381034851074,
    3.7318572998046875,
    0.3097637891769409,
    -3.2040305137634277,
    1.6161751747131348,
    0.4767470955848694,
    -7.1279191970825195,
    2.5942788124084473,
    -4.184209823608398,
    4.455146789550781,
    0.37103256583213806,
    -2.11566162109375,
    3.505612850189209,
    -0.42914509773254395,
    5.631952285766602,
    1.6933560371398926,
    -2.5115163326263428,
    4.5298261642456055,
    -1.4153900146484375,
    -4.190942287445068,
    2.471245765686035,
    -2.463134527206421,
    4.966768741607666,
    0.7717670202255249,
    -3.743035316467285
  ],
  "scaler_mean": [
    0.36282083635427514,
    0.7286500322575472,
    0.221214411057988,
    0.5202541858160576,
    0.9054936819336041,
    0.3430631318870856,
    0.6712298125636821,
    0.0434198372991008,
    0.4552673792757956,
    0.8259479184539951,
    0.1682483692254339,
    0.5809187901263334,
    0.9430848193817398,
    0.35889097744104814,
    0.7402088402890835,
    0.11922958521109049,
    0.5045396718038183,
    0.7858362546583422,
    0.23115254284775988,
    0.6678984371983275,
    0.022928694073034793,
    0.38214490121724654,
    0.8710282485501296,
    0.07040676383656405,
    0.5900750792756373,
    0.9553080330900594,
    0.3625598383598587,
    0.6514095355864284,
    0.047890073790842175,
    0.4568122203658227,
    0.824640962136846,
    0.256795721141254,
    0.6497005208008955,
    0.9448735807217709,
    0.3827720385830419,
    0.7163853207413031,
    0.14516085751202643,
    0.5182806216940588,
    0.8849416294065463,
    0.2645502641898434,
    0.6444968447393301,
    0.06146841389792306,
    0.4599815229980313,
    0.7649841835709656,
    0.12215085601320072,
    0.5431335892807059,
    0.8884689665976024,
    0.37860082262227324,
    0.7180800685266249,
    0.13017318869123654,
    0.49024383368946256,
    0.8093558432293587,
    0.28319376402971697,
    0.6336829585282981,
    8.398421159406909e-05,
    0.3542174078574797,
    0.7781120502218908,
    0.13716562730925425,
    0.540466385836504,
    0.8948517628267508,
    0.3321950393063681,
    0.6240886851232879,
    0.09971725365438429,
    0.4658884126312879,
    0.8154863621912846,
    0.2425400511342652,
    0.5689930368442925,
    0.9482657325511076,
    0.37154783338916547,
    0.7171856858292405,
    0.10324459023722986,
    0.5002099573612213,
    0.8730791243566137,
    0.2702658833289633,
    0.7062512234765657,
    0.009042300081171958,
    0.41537253589046247,
    0.8501504298781051,
    0.17787855858502744,
    0.5663335335497953,
    0.8955741792309041,
    0.3073149670143517,
    0.668206378310716,
    0.13406679560081894,
    0.4174594264857623,
    0.9136515263797474,
    0.23053665920382455,
    0.6074298060670191,
    0.9964766871361506,
    0.3357183610906406,
    0.7482153384052977,
    0.16390918524695092,
    0.5171152162714069,
    0.9346017436105378,
    0.2872819916224804,
    0.6631673282506515,
    0.04675176982976952,
    0.38339161507937375,
    0.811595415987936,
    0.22188628546031966,
    0.5787733440496483,
    0.9469875709540179,
    0.30225917544900155,
    0.773550571633034,
    0.07165894459704963,
    0.4816922910359441,
    0.8623218868865448,
    0.27843565275879945,
    0.5823237705392902,
    0.053906823299369036,
    0.4211248274968595,
    0.7061392445953525,
    0.22354121597445742,
    0.5221291719650736,
    0.917135568703113,
    0.2857702768781558,
    0.6552565280272036,
    0.12160880650792803,
    0.4371658121647478,
    0.9786960121725692,
    0.19708920011715014,
    0.6198064940316337,
    0.967134186605207,
    0.3866913004391858,
    0.7590861109649243,
    0.06713283122802267,
    0.5267489641702094,
    0.9290333378071688,
    0.3409762412917857,
    0.5810770562716893,
    0.02469135808511352,
    0.4167016590533613,
    0.7753204934451045,
    0.1900696590238688,
    0.59357240938005,
    0.9737409458679407,
    0.19982655011877723,
    0.7937772809242716,
    0.0918787269643983,
    0.5030654214677357,
    0.8821313482563512,
    0.24397648232323782,
    0.6026427007856823,
    0.00013997369021380028,
    0.4421768837234601,
    0.7317397144376016,
    0.14845608990816844,
    0.5487248382600797,
    0.9245196207850969,
    0.2969889239389069,
    0.6876347259599336,
    0.04540746357152555,
    0.4484646579846233,
    0.7777326151627262,
    0.19282774875561395,
    0.6085495920408339,
    0.921240223102829,
    0.33046048088949553,
    0.711710195152127,
    0.10330057980454697,
    0.47556713223457336,
    0.8227227257222546,
    0.28395061843654734,
    0.6288177821100974,
    0.08908583619156663,
    0.42746023985804343,
    0.7749783076396605,
    0.18151787516413903,
    0.557070488426961,
    0.924573826141098,
    0.32609639494192033,
    0.6776702781112827,
    0.06877985252004092,
    0.40978942598615375,
    0.8083948468675419,
    0.22869068627454797,
    0.6520770034011529,
    0.9747405007582943,
    0.32557533732076893,
    0.7609019761993772,
    0.06970618035466898,
    0.4922080481944441,
    0.9479808949288868,
    0.21494973131588527,
    0.65552178329351,
    0.04474618666026057,
    0.48345636287514043,
    0.7543431796184202,
    0.2206686935355874,
    0.5228880467463513,
    0.9366333796864464,
    0.36650677299012946,
    0.6420321338841705,
    0.1680895515850612,
    0.46521927933303675,
    0.901834850408593,
    0.2646403246793617,
    0.6681302051965882,
    0.0038211028769510945,
    0.37593843438187424,
    0.750904618071861,
    0.1994200129898227,
    0.5625126659870148,
    0.9652817358776015,
    0.3005355322847561,
    0.6723310890651885,
    0.1398176291108537,
    0.4241266354006164,
    0.8578376052330952,
    0.19668266298819562,
    0.5753075721718016,
    0.9826815249968548,
    0.3485309023435424,
    0.7380545909712914,
    0.11576204985177437,
    0.5022901667624103,
    0.9035750473437666,
    0.2753069437279993,
    0.6430742509511053,
    0.04409572725393334,
    0.3924735861570657,
    0.8104182011416169,
    0.10644087382928044,
    0.5448410488715788,
    0.9866840381200622,
    0.259018356094555,
    0.6931538581848145,
    0.08634848618993954,
    0.4734983365146481,
    0.849608377534516,
    0.21207121202126653,
    0.6445510513117524,
    1.0,
    0.35496111852782114,
    0.8818642355146862,
    0.153942059497444,
    0.5102040840654957,
    0.9261457713282838,
    0.27080619416269314,
    0.6916280530747914,
    0.040034737184542375,
    0.3861018626057372,
    0.8466637738707925,
    0.11675746343573745,
    0.6227818784259614,
    0.9739003238223848,
    0.3438124173149771,
    0.7547768163843219,
    0.1150383564586542,
    0.46345232660267627,
    0.8596323610974007,
    0.2577174372819005,
    0.5946282926870852,
    0.05687913960669519,
    0.34216875020338566,
    0.7671791189381866,
    0.23942326647894724,
    0.5138302062238965,
    0.898392835036427,
    0.3414246740998054,
    0.7022251202946618,
    0.06542000003463151,
    0.44770578847450465,
    0.8458749145066657,
    0.16518958673185233,
    0.6139530689537931,
    0.9772881476246581,
    0.3433725898768626,
    0.712740878669583,
    0.11663520039648426,
    0.49228935460655054,
    0.8787197689620816,
    0.2902675100735256,
    0.5804489206294624,
    0.07328509311286771,
    0.3969252900201447,
    0.8042117353199291,
    0.14906050591748587,
    0.6687806666302843,
    0.913452607839286,
    0.33563705366484975,
    0.753064222481786,
    0.10231184412022026,
    0.47532141005911793,
    0.9005610310301488,
    0.2358476433928321,
    0.5863891402069403,
    0.0314663309021061,
    0.325012883361505,
    0.7580388991200194,
    0.13491612186237256,
    0.6046929789238236,
    0.9235981431137137,
    0.2321615869394776,
    0.6969943427715172,
    0.08217207599608671,
    0.4732363195646377,
    0.8581917326466567,
    0.18356506496059652,
    0.5249782768236536,
    0.9801880997054431,
    0.26560580203322326,
    0.6962083707861348,
    0.04908747612467023,
    0.5614819682779766,
    0.9240612570120363,
    0.2767975798674992,
    0.6824597687948317,
    0.00986530099596296,
    0.45814978123522127,
    0.7142044131447669,
    0.20926608550710743,
    0.5654389252062557,
    0.9479157304277226,
    0.31037754671914236,
    0.6548593011843103,
    0.1704203644577338,
    0.560939794900466,
    0.8538905706535391,
    0.27043064050122995,
    0.6024067016685901,
    0.9993706734812989,
    0.3823888234946193,
    0.7369115048525284,
    0.15743827880645284,
    0.5239593642098563,
    0.8967937920369259,
    0.34912643454918246,
    0.6554733506676291,
    0.020707842456747075,
    0.4231780487663892,
    0.8120111470319786,
    0.2312383189493296,
    0.5984596480317668,
    0.8996395513313968,
    0.3542809201543834,
    0.6810486742428371,
    0.10323332827918384,
    0.4851675828297933,
    0.894273257985407,
    0.20579007855888937,
    0.6107542644552633,
    0.00226757374154974,
    0.33525761901115886,
    0.7616562648695342,
    0.16088029316493443,
    0.5164476744577188,
    0.9235710359755016,
    0.26117478838177766,
    0.657560239438297,
    0.0665983285970327,
    0.4046670581613268,
    0.838567388300993,
    0.2535165536160372,
    0.6039201065796573,
    0.9843889839795171,
    0.32904668730132436,
    0.8495270731497784,
    0.11300593280062383,
    0.47741009791692096,
    0.8446556735200946,
    0.2765536575901265,
    0.5460193197743423,
    0.03891915447857915,
    0.4514335410124591,
    0.899504034697604,
    0.15950672526140602,
    0.5754126363060101,
    0.9223433676220122,
    0.3687291759617475,
    0.716677538797158,
    0.10152587233757486,
    0.49445531603430404,
    0.8978236828531537,
    0.20224893635430305,
    0.5914030987389234,
    0.043363463697435496,
    0.2515651753970555,
    0.7619979511312887,
    0.12258449561741887,
    0.5117882765880247,
    0.9090170057452455,
    0.2603982223742673,
    0.6649050096265313,
    0.005901904060777758,
    0.44364041698222256,
    0.9425340911158088,
    0.2653061303557182,
    0.8075668617170684,
    0.9067132951450997,
    0.24042493733419043,
    0.6894598530263317,
    0.1683595805447929,
    0.47071578997333036,
    0.9596185505795641,
    0.28303114917813516,
    0.6443015543781981,
    0.09521099560114803,
    0.3568477614396283,
    0.7753747004230006,
    0.32022489414734095,
    0.48651652879455465,
    0.9876370628674825,
    0.29528146799729793,
    0.7537974111076926,
    0.07946445747297637,
    0.48526077124537254,
    0.8592026553997377,
    0.22719224694432044,
    0.6403501682540997,
    0.9996272479595781,
    0.36206196704689336,
    0.7546050394473433,
    0.2119955615121491,
    0.5569844363498039,
    0.9080684185028076,
    0.24508433489977907,
    0.6733067793911006,
    0.03590842721299553,
    0.46868310432855775,
    0.8000921586743829,
    0.17402231779431,
    0.5496110818823989,
    0.9289232910084887,
    0.3183998793971782,
    0.6369089500433733,
    0.10008944114860223,
    0.46858349320839865,
    0.8983928362528483,
    0.2535437816868023,
    0.6412445517624317,
    0.0008712844688724093,
    0.39182048488636406,
    0.7876746751824204,
    0.1183565094762919,
    0.5307797959872654,
    0.9056291969455018,
    0.23705639908102905,
    0.6748245176003904,
    0.1008679330329962,
    0.4407404523317506,
    0.7654234097928417,
    0.25362496351709174,
    0.6248785200573149,
    0.9784806415337284,
    0.13779699055439965,
    0.7625281267425641,
    0.018598572278179886,
    0.4816651879524698,
    0.9039241294471585,
    0.222755244191812,
    0.6068161259703084,
    0.05019378418825111,
    0.39090512885528356,
    0.767487878296651,
    0.22502597107165526,
    0.5682304801584102,
    0.9109279221417953,
    0.3142260982065785,
    0.8255420400171863,
    0.04211724655968802,
    0.49378371928013914,
    0.8352169658051056,
    0.17449147153810476,
    0.5943572683399226,
    0.9510070016594971,
    0.3582134155594573,
    0.6985690800511107,
    0.15554110553799844,
    0.6001809555657056,
    0.8900452669785948,
    0.2460038198196158,
    0.7093530698698394,
    0.007204852412220369,
    0.4429086475145249,
    0.9371669843894284,
    0.19692658526556833,
    0.563151365842949,
    0.9710003559281226,
    0.3880567001242216,
    0.7356424716865124,
    0.13266981661725205,
    0.48627260590897126,
    0.8739318377306672,
    0.22934114568087519,
    0.7357327159570188,
    0.015963357930280725,
    0.41329043819790795,
    0.8196330427312527,
    0.1962065611566816,
    0.482830592766911,
    0.9527160634799879,
    0.28853295165665294,
    0.6555075195370889,
    0.1271648139369731,
    0.5020274122556051,
    0.8439710634906276,
    0.23189571332566591,
    0.6082337356749035,
    0.996749439207064,
    0.37721225071926506,
    0.7413625510371461,
    0.15329160009111678,
    0.4487115029169589,
    0.9164671451867032,
    0.258720228866655,
    0.6415840058910603,
    0.07819064113558555,
    0.2854102533690783,
    0.8994227282854975,
    0.10572720689344264,
    0.5854676572643981,
    0.9553832728035596,
    0.26937150164526336,
    0.6817162620777987,
    0.10190530699126575,
    0.36267244116384156,
    0.6937691459850389,
    0.3291528878771529,
    0.6268260349221781,
    0.00022802417337590335,
    0.3759113319066106,
    0.8555846891435636,
    0.10244735649653844,
    0.5993235301809247,
    0.8811827630412822,
    0.18253334968978044,
    0.6939317600256731,
    0.01109717632675556,
    0.4501450104372842,
    0.7702276447192341,
    0.1976854545729501,
    0.6190096176400477,
    0.9630593438537753,
    0.344316497546475,
    0.7675962881977055,
    0.012997377863419908,
    0.5471718611360408,
    0.9741192557373826,
    0.30799252889594253,
    0.6853646473819707,
    0.02975851783947069,
    0.31026488826388404,
    0.7809036049713083,
    0.2698286027729917,
    0.5142423583536732,
    0.9749173416572363,
    0.2727864135284813,
    0.7011363214376022,
    0.09534650797746619,
    0.3663588316262174,
    0.8697726211580289,
    0.15133204093190278,
    0.6097514751006146,
    0.9973017143554428,
    0.36807871655542024,
    0.906054040607141,
    0.1911808605096778,
    0.6944096076245211,
    0.9347101531061185,
    0.4064150785102325,
    0.6729273427100408,
    0.04549082223211928,
    0.4095997084565714,
    0.8158324782540198,
    0.04677887230503316,
    0.5172728348751457,
    0.9261999758733374,
    0.4285334235145932,
    0.7658075264522007,
    0.1658495795868692,
    0.4866791406050831,
    0.8921065650829653,
    0.22828414914559345,
    0.626002356511395,
    0.013144700502862736,
    0.41226769750621045,
    0.7655907058391441,
    0.19002014193303732,
    0.4963818277631487,
    0.9949074598396717,
    0.26771825065418164,
    0.7071409557952362,
    0.04889286537559665,
    0.44396305976270817,
    0.7916090829031808,
    0.23889332278283174,
    0.6060926387099181,
    0.994254278082426,
    0.3243282932002528,
    0.7511450899701541,
    0.27773699326580076,
    0.5199338730906142,
    0.8838643338404545,
    0.2690733744173634,
    0.537463903427124,
    0.09255495302531185,
    0.4117359174352114,
    0.9124319168175159,
    0.1283218316467745,
    0.563270727185165,
    0.9704889132052051,
    0.42228366687995234,
    0.7431116310917601,
    0.09445212629376626,
    0.4443791908066289,
    0.8031276350929624,
    0.24323398320853304,
    0.606987020596355,
    0.9303088143569271,
    0.30948316503544243,
    0.7504037598363397,
    0.14264032731250842,
    0.4700729202251045,
    0.9358213511454004,
    0.34649831416452825,
    0.5718080083123681,
    0.09171438266896978,
    0.44933193658484893,
    0.8662947209513917,
    0.21275443081953088,
    0.5241031648755885,
    0.9860693415006002,
    0.43263348460602924,
    0.7266986544440392,
    0.05290461499497396,
    0.5034826738493783,
    0.9654969885235741,
    0.24289238331269244,
    0.748201439980747,
    0.05122367824826922,
    0.4785885563513049,
    0.7854026162705454,
    0.143248665906793,
    0.5641109035128639,
    0.9382371630798392,
    0.2971244363152251,
    0.8079087742331887,
    0.07529067628237666,
    0.43194831836791264,
    0.860476472750813,
    0.15166642182969114,
    0.5362766640526908,
    0.9064748206106173,
    0.3808439824045921,
    0.8134879855071606,
    0.09220262084688459,
    0.5116722942615042,
    0.9053310699203387,
    0.17300445313064927,
    0.7510095741473087,
    0.0470807027787629,
    0.3759113319066106,
    0.8339940301415061,
    0.23337941449515673,
    0.600939656804208,
    0.9625985946785025,
    0.38521019901548115,
    0.7518226484052178,
    0.10370479131016094,
    0.49947150872678175,
    0.9037830947207756,
    0.24909885014806474,
    0.6666177243602519,
    0.01810445347610785,
    0.3817354275458524,
    0.7970837812845398,
    0.2637889670068715,
    0.49464726894080235,
    0.9524298922545245,
    0.2973412561173342,
    0.6485587034095712,
    0.17973936650724637,
    0.4446161054835028,
    0.913039914604758,
    0.18817248575541437,
    0.7380542548335328,
    0.9544678549377286,
    0.6789607412758327,
    0.7299509514756755,
    0.01827719029622013,
    0.46898122790719377,
    0.9412343234431987,
    0.2577174372819005,
    0.7682976787593089,
    0.010380248025972016,
    0.2610441778792816,
    0.6931457884457647,
    0.020162281865368083,
    0.5291758191828825,
    0.6794524983483918,
    0.2765536575901265,
    0.6903532488005502,
    0.13079654562230014,
    0.4051307281669305,
    0.8616689800405178,
    0.2623555449148019,
    0.603246879820921,
    0.9985247108401084,
    0.4226359972337476,
    0.7411687576851878,
    0.08903163124103936,
    0.647979675304322,
    0.9073095491954258,
    0.4723383362601403,
    0.7150716915422556,
    0.004917629696682197,
    0.41621271242089825,
    0.9413982439203327,
    0.14245060998566297,
    0.6079829487265372,
    0.9136786314905906,
    0.1897385472647187,
    0.7289752615552371,
    0.2052290805545794,
    0.46158225357937976,
    0.9831980998013296,
    0.15876630009437093,
    0.887796084491574,
    0.04526113369026963,
    0.6795344601581697,
    0.805946291303959,
    0.11122039077030559,
    0.5860097047423019,
    0.9844275060154143,
    0.3807626749788012,
    0.4653716908425701,
    0.04978724705929659,
    0.3471846570621948,
    0.8278721939949762,
    0.09515613408721223,
    0.6420034190424445,
    0.8432095723898232,
    0.4044773408344814,
    0.7696910038286325,
    0.07125240746809512,
    0.21973608844742484,
    0.8866303599610621,
    0.0808130475584747,
    0.588069494889707,
    0.06474879024182859,
    0.31791203484243274,
    0.6756003580125821,
    0.14266742978777205,
    0.47676420353707816,
    0.9036507140211507,
    0.15080730921151686,
    0.728650034284916,
    0.004917629722024308,
    0.5488251127353331,
    0.8169822137372024,
    0.23598125212046564,
    0.5524137389092219,
    0.04179201685652441,
    0.5004507844545403,
    0.7884109912275457,
    0.17594926941151523,
    0.006802721088435374,
    0.8971461211742998,
    0.0,
    0.6970756508055187,
    0.0,
    0.420820133418453,
    0.8367346944857617,
    0.1910995530838869,
    0.08616780139962021,
    0.960484601607939,
    0.9319727897238569,
    0.9245738285739405,
    0.006802721088435374,
    0.4629644783986669,
    0.9931972789115646,
    0.2766078625406538,
    0.002267573763724087,
    0.014337209414462653,
    0.038548752969625046,
    0.7015475561829652,
    0.0,
    0.5241076552948984,
    0.9024943316063914,
    0.33455295465430435,
    0.9727891156462585,
    0.012819470799699122,
    0.0,
    0.8857359768582039,
    0.9206349209052365,
    0.5788817553698611,
    1.0,
    0.4414180123887094,
    0.9727891156462585,
    0.13098626294914556,
    0.6530612259089541,
    0.8756267545985527,
    0.9569160999084005,
    0.7807138870362522,
    0.013605442379607636,
    0.4697943037869979,
    1.0,
    0.25159227787231914,
    0.9909297053505774,
    0.9827899344924356,
    0.004535147527448174,
    0.8103097896186673,
    0.0,
    0.4964902384751508,
    1.0,
    0.2820554600686443,
    1.0,
    0.0024934277242543747,
    0.05442176951843054,
    0.8081415911921027,
    0.9886621317895902,
    0.5457896348975954,
    0.895691610517956,
    0.26340895708726375,
    0.9931972789115646,
    0.15234301345688955,
    0.9886621315868533,
    0.8106621232162528,
    0.24716553740760908,
    0.5763341231005532,
    1.0,
    0.35417514674517575,
    0.06802721088435375,
    0.14838605206839892,
    0.7981859421243473,
    0.8617231845855713,
    0.9455782319007277,
    0.6238718636992837,
    0.0,
    0.38263274577199197,
    1.0,
    0.19939291051455907,
    1.0,
    0.9130823758183694,
    0.01814058970431892,
    0.732444377172561,
    0.0,
    0.44063204243069604,
    0.9863945578231292
  ],
  "scaler_scale": [
    0.03372806950636683,
    0.03883359949469325,
    0.04536940700923322,
    0.021147277328792385,
    0.03902125908832962,
    0.035134489050453,
    0.03787860706177758,
    0.03293644755535975,
    0.026633060188112366,
    0.045751706821509426,
    0.04641353444328836,
    0.03014538109997021,
    0.039571416377378515,
    0.037088190138476806,
    0.04062615988521145,
    0.04406935395175181,
    0.02025063919904939,
    0.04526718858362882,
    0.044070473924254255,
    0.03738969618582404,
    0.018782543320575544,
    0.033389743549429154,
    0.04451296830556812,
    0.037311702486887525,
    0.026366460409556574,
    0.037723278102790005,
    0.03584273211119737,
    0.03496571057148921,
    0.030332719324655713,
    0.02627771869704743,
    0.04584897020533962,
    0.03961944700550634,
    0.03163136383652727,
    0.03287985046552342,
    0.03727419139026245,
    0.049449184491841325,
    0.04208664487503457,
    0.019278068684164488,
    0.03843639417614682,
    0.0357147901635996,
    0.03055827951468171,
    0.02940557366329811,
    0.03183226757624378,
    0.06735398770267974,
    0.04018738728168758,
    0.01562950775112737,
    0.06565918570656586,
    0.04648913599672114,
    0.04787948229800597,
    0.05521099511152268,
    0.016993103739744393,
    0.05978610275242313,
    0.047837012812135926,
    0.03413894365795885,
    0.001014785089747231,
    0.037079280707864426,
    0.04737909348387797,
    0.04360858173194656,
    0.022704689790592064,
    0.04341151914069447,
    0.036039301837115914,
    0.03316355573900191,
    0.03876823270829435,
    0.024664427388481968,
    0.04672781102921554,
    0.04372701969731356,
    0.023022093557949763,
    0.04440285187272735,
    0.03452987241944461,
    0.03994345758142849,
    0.04180200136497228,
    0.018635155465134123,
    0.04107894974215275,
    0.039677801633902415,
    0.03770852346485892,
    0.015039246096976372,
    0.03602058652797095,
    0.0659094199717885,
    0.04719205286585073,
    0.02363449454530703,
    0.04079733815136878,
    0.037937695975014285,
    0.04367089170919045,
    0.06326835323392696,
    0.021724996596885267,
    0.033905293277426474,
    0.05853653342695823,
    0.04068647491361179,
    0.004272223107198007,
    0.0333503198949594,
    0.04062544776143979,
    0.043427949575465245,
    0.01902442874755006,
    0.035482243161161324,
    0.039320777131124196,
    0.035757840389823714,
    0.029516723365687107,
    0.03189983213859618,
    0.05239261287826532,
    0.04984135668180251,
    0.027400428430539518,
    0.03272041953316201,
    0.04405951722058047,
    0.05285329134804162,
    0.04970663418499849,
    0.020000558933017755,
    0.03990792961737888,
    0.034854448865671586,
    0.03503573235200189,
    0.04454271814552463,
    0.03003546992524611,
    0.07125316588189703,
    0.04654565877189111,
    0.016263422904282936,
    0.03496382275854912,
    0.03386409868144985,
    0.0427389968443271,
    0.050350563938515655,
    0.025359183192033296,
    0.025678057357928233,
    0.044666178424036855,
    0.03187928438995234,
    0.030758053643242394,
    0.033118638290365744,
    0.04112966284920308,
    0.03374309327217329,
    0.024579125301357783,
    0.03804389148099104,
    0.04360324184818128,
    0.0468145010134752,
    0.0330021975923782,
    0.02937913904670857,
    0.04763580619009394,
    0.04689943757890954,
    0.03170366300071795,
    0.0272311249080153,
    0.05189322198975491,
    0.05162961152538874,
    0.04260789752135917,
    0.01930564995022416,
    0.037792845157044466,
    0.04024065056756725,
    0.03405407162763256,
    0.0016913085339470338,
    0.027271770089180837,
    0.0394356564336999,
    0.04663039231742298,
    0.029255003287870406,
    0.04018546636256956,
    0.04248795152210192,
    0.037355529680137764,
    0.03794025439692905,
    0.023940798875100252,
    0.044226271906117574,
    0.04945964183542884,
    0.034832625661249776,
    0.03615815660238153,
    0.03719364228907681,
    0.03784103207787129,
    0.041386012810647445,
    0.020299299515861926,
    0.04683299823421874,
    0.0387174804881136,
    0.03544812538841375,
    0.039319424477932664,
    0.030063621495494353,
    0.04639980476312103,
    0.04784984481991732,
    0.02997038387988484,
    0.03347419959357693,
    0.03608738478320108,
    0.034383356308773774,
    0.03164226019948245,
    0.033693925434889575,
    0.058007102583785046,
    0.04006404097635685,
    0.03686495542402842,
    0.023126047554697333,
    0.03568676379140064,
    0.03884154440636088,
    0.04449010066168878,
    0.019777412028086694,
    0.03198206327926764,
    0.036488911063311015,
    0.0337055726385543,
    0.01589601185527607,
    0.022105429765635634,
    0.02881017269352483,
    0.03698727228831815,
    0.03617762885045661,
    0.045080894552046995,
    0.06475588465192289,
    0.04576098033062089,
    0.0642282118992428,
    0.026918325897678345,
    0.04770237417989005,
    0.03907427227723592,
    0.03379444833266549,
    0.013035554391522076,
    0.03291236038646989,
    0.04526943050870116,
    0.0645442475261331,
    0.027859078926493773,
    0.020122555892348983,
    0.036666870133615206,
    0.03609994874919904,
    0.08831273734558458,
    0.030647063907804247,
    0.047000890599680906,
    0.0636926275198108,
    0.027486524338152074,
    0.009810271339290688,
    0.03171727714162037,
    0.03641043725450086,
    0.04335597876143897,
    0.018877136950444382,
    0.040883427083503836,
    0.04302461395321295,
    0.04196701098011726,
    0.03919761952264619,
    0.03722982171975887,
    0.04136144854803677,
    0.07128461815697393,
    0.0457913124370269,
    0.022551319670209645,
    0.028083239088474578,
    0.054578538578879614,
    0.035116149139253046,
    0.021020651233892382,
    0.03998359872164895,
    0.04185279987449757,
    0.032907672729498884,
    1.0,
    0.04356481582971161,
    0.04123693963308512,
    0.03486861684628589,
    0.023242429169669336,
    0.033508415786095404,
    0.03517421888192353,
    0.03360940991944443,
    0.03174608756455416,
    0.033339305525621074,
    0.04968321034074768,
    0.04143387913039007,
    0.03465864213305059,
    0.019684118222699953,
    0.03599119170198941,
    0.03960191743470477,
    0.042220191735503426,
    0.024529341483008893,
    0.04501487401669192,
    0.0356642418386055,
    0.02978807567093472,
    0.02889847553989844,
    0.03315936622548874,
    0.03677965503100782,
    0.033479598945772134,
    0.026891944588104594,
    0.04896113002271935,
    0.036003402622707174,
    0.03459235793784301,
    0.028122539093111604,
    0.026720702840554392,
    0.044470393890984734,
    0.04601872606708463,
    0.03103153146346747,
    0.01787424690783598,
    0.031123715784606158,
    0.030394117768980957,
    0.05592711900252476,
    0.019534805513933537,
    0.0261621627572097,
    0.030216914187674457,
    0.050041910072109744,
    0.039389697369254226,
    0.05236092196889324,
    0.0637229942083344,
    0.06803530349630388,
    0.04421017579961757,
    0.04870083323330591,
    0.03371824600700797,
    0.038317610301702186,
    0.030494319662027845,
    0.02639040486848464,
    0.037941219018146184,
    0.06986616248511292,
    0.03150799882293731,
    0.029754129611186723,
    0.0358397828763117,
    0.04301909054899074,
    0.07287463010126027,
    0.03443257072565259,
    0.023122337640404965,
    0.07444061403045071,
    0.03479991569210632,
    0.08397624829885932,
    0.01927018186206254,
    0.036574410888863984,
    0.04229655393577725,
    0.0307850482293752,
    0.024249455278540704,
    0.05431982116554245,
    0.04485563630462414,
    0.051162873490579616,
    0.04977755582842415,
    0.054693110887596035,
    0.06273134732570015,
    0.05249381503661489,
    0.02022603817413954,
    0.02106756362353921,
    0.04802358444478169,
    0.04352336621880332,
    0.02523207071487261,
    0.03134316402856245,
    0.03143702547960807,
    0.033485272517980585,
    0.09186801272893755,
    0.04260664380384106,
    0.03713954956542798,
    0.029564729843683125,
    0.04235484998450845,
    0.004046005900329991,
    0.027717445849714386,
    0.03737579415563545,
    0.035535489791730004,
    0.02499002107408694,
    0.03538927732522889,
    0.03912584474353495,
    0.02991283375663507,
    0.026637768410966798,
    0.026404877752153007,
    0.04041160243407994,
    0.03889402561781398,
    0.035329667053970115,
    0.027852933102911804,
    0.03517076548128237,
    0.03557106634539262,
    0.023267692053607035,
    0.0237944376702008,
    0.02493583827542589,
    0.032973295887385706,
    0.029887849145072407,
    0.011113312962615713,
    0.030107202794263113,
    0.03472885335677239,
    0.030696709046392098,
    0.027806991541433432,
    0.029962201529678243,
    0.039770361994745464,
    0.02738771917013552,
    0.025713948669551966,
    0.023517297392414597,
    0.036443390684119864,
    0.04258657051233245,
    0.02892384765478131,
    0.012006365150261343,
    0.028845951356798166,
    0.08000728786851043,
    0.07746523816371194,
    0.041368050689541795,
    0.06303874397301577,
    0.05154276606774907,
    0.04484380103928705,
    0.01694167035624318,
    0.033540445280376266,
    0.027866351024967827,
    0.03864536198805869,
    0.025639229254428502,
    0.03961977925523891,
    0.04048102860321953,
    0.0408981100982763,
    0.03064044806770499,
    0.027063896550868584,
    0.0340059052937102,
    0.0768666928718307,
    0.03159392951807996,
    0.03865165263531329,
    0.07536770040131831,
    0.05106399723178167,
    0.08500403508478165,
    0.02651062403208433,
    0.02693735150946953,
    0.038140284117663265,
    0.03188310846469934,
    0.016995387662834337,
    0.032292549416005754,
    0.046453074743706774,
    0.05585186935845015,
    0.08564816910972772,
    0.058290800550086175,
    0.07686197273669697,
    0.03720525443290277,
    0.052960302613537444,
    0.017321640414613815,
    0.04767025578457787,
    0.03170565666995893,
    0.029010256254679737,
    0.03063826644494792,
    0.029027947336896464,
    0.027599795864127825,
    0.07254750300225851,
    0.04000701325769947,
    0.025919245839275747,
    0.03246500971382378,
    0.042014096476980387,
    0.029478125302225558,
    0.027087774708253253,
    0.033995405921423166,
    0.03275288371106951,
    0.025746636954200514,
    0.003472634421703278,
    0.03271146385486267,
    0.03055033734318706,
    0.03655069999245617,
    0.028812719124642748,
    0.02106676683698805,
    0.04191151917359149,
    0.028305419346345163,
    0.028724809969311985,
    0.0211274519900772,
    0.02399320903927662,
    0.035069771878433784,
    0.02407691638363718,
    0.020468742449206198,
    0.02988458094200575,
    0.03985128793448878,
    0.02586104499205727,
    0.028078131149148186,
    0.02408158208271175,
    0.036905269701365914,
    0.02592124648851647,
    0.005064921293425001,
    0.035362779634817515,
    0.03803499190801834,
    0.0257745252229241,
    0.023828942677539253,
    0.020988272636755623,
    0.03856155724115399,
    0.03127172375838944,
    0.050581588742006335,
    0.03096246272757596,
    0.08671468917440482,
    0.07295882642055451,
    0.06443991257011933,
    0.0336800092837456,
    0.06796962359178453,
    0.040903931813443595,
    0.04169975798764347,
    0.02675512309268172,
    0.04393804753375549,
    0.022931128681509854,
    0.038351746627938964,
    0.021470737592671967,
    0.05007142474331554,
    0.031504316289028125,
    0.04211804086002651,
    0.022543069304957697,
    0.05124683221575387,
    0.035931095720350734,
    0.04774948107664378,
    0.03485949405148966,
    0.03517866649007678,
    0.044824575214784175,
    0.0964596372884339,
    0.03539136594576351,
    0.03207331491532814,
    0.03728684042783704,
    0.033505880151249584,
    0.03891622896217244,
    0.04971820089500853,
    0.03282271679740342,
    0.06911191148452364,
    0.04844891632178705,
    0.029283232897934604,
    0.05153968206356447,
    0.07662492174368558,
    0.04481989032839631,
    0.03659388848626208,
    0.010886356169375432,
    0.03464178947537805,
    0.029700801416505725,
    0.03728067764944736,
    0.025868906113681794,
    0.031053308096254242,
    0.06236664116412966,
    0.03905035809330316,
    0.022592282645501525,
    0.03459858175279087,
    0.046808052260370055,
    0.045368740454307374,
    0.02564062656895231,
    0.024705226931070093,
    0.029599278195279063,
    0.04114526635519047,
    0.0447705000530149,
    0.025385857892573693,
    0.02650904726332708,
    0.03720722653764733,
    0.023246371242686813,
    0.009380070714555004,
    0.023659141446599655,
    0.027480770816402277,
    0.027328515879693083,
    0.02667946652710574,
    0.041291826125202914,
    0.044991153840208215,
    0.05206016280966455,
    0.031727218379639203,
    0.04536194181526944,
    0.02945910588625694,
    0.06438681009830041,
    0.025403711652440597,
    0.03624034477840416,
    0.05267746583094148,
    0.04602647353475772,
    0.028499022759216987,
    0.04544884787938325,
    0.03194573862622407,
    0.04353530052834249,
    0.026481711922617245,
    0.0017089140505340725,
    0.029816911060160222,
    0.05911342908763044,
    0.05840397912186179,
    0.05415924497004141,
    0.04325979601001329,
    0.1291946944050351,
    0.04521971446370565,
    0.0267486273579047,
    0.03666500944234943,
    0.05279143841924745,
    0.03761956342946507,
    0.04013045307978926,
    0.010292662141292937,
    0.050660382668494666,
    0.030357143225779367,
    0.038524502332775414,
    0.04857614463535913,
    0.040793921212320255,
    0.028273402997761782,
    0.04734099937032374,
    0.013654161406419127,
    0.04550842116336245,
    0.031492491599436664,
    0.0348694765474801,
    0.05502277166461132,
    0.04802395168251988,
    0.05226353798399006,
    0.04750838172798815,
    0.02933447024139173,
    0.04014783518793217,
    0.031435203198619,
    0.03954574338580796,
    0.028895637095385833,
    0.014311530112708871,
    0.04304146136001353,
    0.08226602382918345,
    0.08448023699038103,
    0.044742190246881273,
    0.03018991806875907,
    0.0359453826579089,
    0.052151908311711126,
    0.04917565647860605,
    0.03886474112570782,
    0.05652112856551784,
    0.02416981664346296,
    0.034436555372975276,
    0.02434894484975566,
    0.07290204968679778,
    0.0466392556314835,
    0.04535200868829806,
    0.058942637212260236,
    0.06326484894300544,
    0.024198063739198087,
    0.05723174383996475,
    0.01401405025033533,
    0.03905419731568183,
    0.046809166315042144,
    0.06135738336077738,
    0.02586461748109316,
    0.017581127372259423,
    0.0271195173625198,
    0.05090639271213438,
    0.028027707386633183,
    0.03401817009312611,
    0.037003959931380975,
    0.04794858378817074,
    0.025441676047240076,
    0.014725745571263984,
    0.05478016079853443,
    0.021867449853954387,
    0.05651411030038133,
    0.02525894776073376,
    0.04672963686863156,
    0.050943123489430336,
    0.03710550469828659,
    0.043949118505772405,
    0.04437265276402909,
    0.05041943289063579,
    0.0660859046210954,
    0.01894705135412188,
    0.051754326843118474,
    0.03601881178963906,
    0.12598828081665986,
    0.048090728640407886,
    0.04088727111784252,
    0.08158397907463609,
    0.06227478176813034,
    0.03677033878575344,
    0.08700046517957306,
    0.035716229686883504,
    0.04665885060987242,
    0.027799795094881508,
    0.05277000444175882,
    0.023439708728002266,
    0.06130442245460853,
    0.032874238078902794,
    0.05382269117681261,
    0.037971485260154945,
    0.07738363849854304,
    0.04173261987513846,
    0.06100107357307566,
    0.009960147178313145,
    0.057306516223263056,
    0.03217147298624777,
    0.07007713833862057,
    0.03692391052479495,
    0.05093973684825697,
    0.03085487959216943,
    0.1315304861705096,
    0.044333005945214055,
    0.10016322966626798,
    0.040053203356778234,
    0.06873855112009672,
    0.024434918984861127,
    0.038535743817826394,
    0.029087787606100875,
    0.09202197795978087,
    0.024434831758441754,
    0.04300920806617647,
    0.06814228580493434,
    0.0882489363806741,
    0.02598874293539812,
    0.07162362605183382,
    0.029591360740999856,
    0.09754449468588162,
    0.027057176273651146,
    0.03808591217257365,
    0.053215625669065424,
    0.08007801546501406,
    0.033405470656720455,
    0.06663341020110138,
    0.03090868280033323,
    0.08075121988817222,
    0.03225950604041111,
    0.06981792497076715,
    0.03878719089862408,
    0.07124030341535845,
    0.05241394538035734,
    0.055051577463992835,
    0.03321975851301806,
    0.07500556222343244,
    0.036420785863839865,
    0.04662023519473499,
    0.029347613458623578,
    0.060128303824927745,
    0.038471923094421344,
    0.040923981955549485,
    0.0366523825571343,
    0.03996741302337863,
    0.05518931813597317,
    0.08473106665424616,
    0.090253579316998,
    0.043894027415247075,
    0.09872896263787678,
    0.060290843618362594,
    0.06242398520865806,
    0.018859467136942237,
    0.10152282246707979,
    0.04047391649873191,
    0.0560610985568276,
    0.04465092595426117,
    0.08368379474801152,
    0.024903473338117234,
    0.07907484793528659,
    0.013384617159384452,
    0.0739146436805406,
    0.06998559140140957,
    0.05798008530143495,
    0.04684757635093497,
    0.10726227748432546,
    0.05591000884028415,
    0.06116680479796199,
    0.07154185932475644,
    0.05371983844651163,
    0.029426796411796508,
    0.10868202632941516,
    0.04645907917820051,
    0.009096509202155384,
    0.06858617135144054,
    0.11763167148616771,
    0.03723388910434108,
    0.13088831938245463,
    0.02581686750605487,
    0.131658764280565,
    0.03753916752002406,
    0.02643197391272207,
    0.04243982765619981,
    0.10493626267847848,
    0.05807505852504249,
    0.05909528189706292,
    0.043710806933259516,
    0.09468881650209333,
    0.06572813403252288,
    0.07501637847128795,
    0.040889252222585944,
    0.04674824278519451,
    0.11414711897107709,
    0.07339808225920004,
    0.02921749911516657,
    0.09878038401152309,
    0.056286052301383144,
    0.0706039124794759,
    0.05697573214594105,
    0.04917069698583316,
    0.04535633042483821,
    0.10258147418842974,
    0.048695764817082786,
    0.09727298577503038,
    0.030483526226087753,
    0.09418576882712025,
    0.03660610554412244,
    0.06698554763742343,
    0.04272643120393838,
    0.07123673341518591,
    0.04617623942015687,
    0.09646064445337223,
    0.02381038523266764,
    0.09031592943071677,
    0.0465025537651216,
    0.06061209928344839,
    0.06535579697507253,
    0.12878594363679297,
    0.07212951969273383,
    0.0856905495505376,
    0.024874049417504415,
    0.047705795122635876,
    0.03404185387054113,
    0.03363277678396219,
    0.04889760898905016,
    0.11798354994135156,
    0.060942806914264055,
    0.07701608975533823,
    0.029137644145664204,
    0.08917226417133454,
    0.04920697547713238,
    0.034868911769794654,
    0.08219759165710593,
    0.02665519738405729,
    1.0,
    0.055176272281165666,
    1.0,
    0.029734985166009614,
    0.3550038519862057,
    0.05774282692357519,
    0.25522043288079976,
    0.025805082287107265,
    0.23308628063699305,
    0.07461849665741178,
    0.08219759165710593,
    0.05233709807371581,
    0.08219759165710588,
    0.048966920439948124,
    0.027399198035595016,
    0.016361905956443035,
    0.1885498100283703,
    0.032192494227177466,
    1.0,
    0.03506697510187314,
    0.2809413074650001,
    0.03271492178090811,
    0.16269742507620968,
    0.03539593645554537,
    1.0,
    0.03629204372744457,
    0.26178448373185714,
    0.02138888307817749,
    1.0,
    0.053804054464954267,
    0.16269742507620968,
    0.03195674913067803,
    0.4548845523915346,
    0.03699200871677702,
    0.19545906477977326,
    0.060892837951931976,
    0.10196520359872276,
    0.03558151110570345,
    1.0,
    0.04630895507341695,
    0.07723077601890593,
    0.022794449678828557,
    0.05479839607119003,
    0.04135519890943143,
    1.0,
    0.046376470620196106,
    1.0,
    0.03236314730788066,
    1.0,
    0.0073066182288682065,
    0.19840946104351498,
    0.05410577218343649,
    0.09047590535660986,
    0.048839952900964115,
    0.29303510108630515,
    0.07987146822708789,
    0.08219759165710593,
    0.08783563932889904,
    0.09847642018796395,
    0.039111228793141245,
    0.3457733940051652,
    0.042233725442109314,
    1.0,
    0.042981928226689156,
    0.25179259215403704,
    0.02790428524947656,
    0.38205756912450367,
    0.07025928762618976,
    0.20952675348688796,
    0.03654338173962459,
    1.0,
    0.03479400532072457,
    1.0,
    0.05827133027228361,
    1.0,
    0.04769575143214549,
    0.12767064250296947,
    0.03786094454061312,
    1.0,
    0.03438751897430753,
    0.11584616575460127
  ],
  "classifier_coef": [
    [
      -0.0035192613316160437,
      -0.0008349441581547534,
      0.010366357009802792,
      -0.0003001456028581317,
      0.00400157827673588,
      0.0017648596670952548,
      0.003579894415241469,
      0.0084686254069864,
      0.004640599089033497,
      0.003630415962254905,
      -0.0011502335332974557,
      0.005478262753092013,
      -0.011019161643290682,
      0.002344915540294456,
      -0.0031921983337173795,
      -0.010417935046635192,
      0.007664862397847268,
      -0.0018968202589171724,
      0.006121705839215081,
      0.0011118908745329184,
      -0.005577484672536755,
      -0.003244155962013594,
      0.004447416802686583,
      -4.9129356136048484e-05,
      -0.0001651498730851846,
      -0.008004669365744132,
      -0.001867282754628855,
      -0.002428964711176269,
      0.0006646733977807026,
      -0.0013144412010129723,
      0.008698918563963534,
      0.0016729103212765055,
      0.010418092843585738,
      0.0019679090628097117,
      0.01020600733216207,
      0.0007173779798328517,
      -0.008431633065602072,
      -0.006547268243024372,
      0.0020050951003135176,
      0.0023702714211519893,
      0.003737877176839798,
      0.0013876918799469588,
      0.012034973345506832,
      -0.016062725272260162,
      0.005544855108998777,
      -0.013654381297415558,
      -0.009682753781028402,
      0.006246376208295325,
      -0.006199072931102387,
      0.0014359121777801401,
      0.002181806825128866,
      -0.009353779512815436,
      -0.0029256720016951135,
      -0.002055079976234256,
      -5.0269802616772865e-05,
      0.00018549477883886699,
      -0.004042487451497045,
      -0.007932146309520969,
      0.0022064393430924747,
      0.00358932946998533,
      0.00127630441928478,
      0.007970198292591957,
      0.0008237182440677522,
      0.0017979225567716641,
      0.0011990827834820392,
      0.003737085519167106,
      -0.019964870030828977,
      -0.012862657517693114,
      -0.004852030180532765,
      -0.0013550763235900653,
      -0.006952386625730022,
      0.011610043835712217,
      0.0037792001148102996,
      0.0027130958188052454,
      0.0056105808139229425,
      -0.00045688452243368373,
      0.008538926817352148,
      -0.00447432247661708,
      -0.0015939945105800442,
      0.003174535758562271,
      0.005461205603702979,
      0.003609055560821519,
      -0.005289665244471508,
      0.006026009406912047,
      -0.00490823528167227,
      0.0013222544540283313,
      0.005325470749276437,
      -0.011683083717217508,
      0.0003144115382131753,
      -0.00038406129330215193,
      -0.005455905490029438,
      -0.005246940399490449,
      0.00040959661596894217,
      -0.0013028712655528676,
      -0.0017212945591127784,
      -0.0038909076094300744,
      0.005384394020239137,
      -0.006938141314454993,
      -0.006794779406388498,
      0.008179219270835049,
      -0.0024092574513526832,
      0.0007729177959647221,
      0.006772397235569331,
      -0.00018598744631627312,
      0.013569846478568777,
      -0.0068128017007660115,
      -0.011682021645976518,
      0.002235168596866331,
      -0.0046454414446377755,
      0.008493415748284244,
      0.00925510517348111,
      -0.01687272973871792,
      0.005857193471096858,
      0.0006264241805108411,
      -0.0014990410431351907,
      -0.002202854926722889,
      -0.0034350342167557145,
      0.0009945605521953804,
      -0.003986777568903373,
      0.007136836491387205,
      -0.008118486111361593,
      0.0003706900259108687,
      -0.0007241891185039748,
      -0.0035538429194792265,
      -0.0076524987194097,
      0.002042002136080926,
      0.00043855805631730344,
      0.0013149787701864895,
      0.006672246940527651,
      -0.01622061488404251,
      0.0036715011645286153,
      0.0017347566204526845,
      -0.008048958403723766,
      0.0027546804773784864,
      0.008515525974185074,
      0.0017303825754070863,
      0.005441603173496889,
      -0.004557438329102062,
      -0.002838599914100322,
      -0.0011028039351666805,
      0.007060350296042166,
      0.0038806635666930643,
      0.0023584544479848452,
      -5.0269802616772865e-05,
      -8.111291418723883e-06,
      -0.0027065968005449644,
      -0.012408481545604902,
      0.001861501064125826,
      -0.0046827696811059805,
      1.548651989839747e-05,
      -0.0017149072029710598,
      0.003520458666038166,
      0.0026187957607319992,
      -0.007890189306860597,
      -0.0006736236340652981,
      0.0005399115543026637,
      0.0007486593753209539,
      -0.0012061111842728161,
      0.00013435337865646795,
      -0.008419483500033277,
      -0.006853404183086893,
      0.007447292193730907,
      0.00010706357699156146,
      9.008025797594439e-05,
      -0.0007415958272097267,
      -0.007690055570926384,
      -0.013119680631050049,
      -0.00700728693296672,
      0.004495947106803048,
      0.003785693086006337,
      0.005425544341379053,
      -0.007492675522553247,
      -0.0006302749785624906,
      -0.003447044295597011,
      0.0030904081114297827,
      0.0032469331096062998,
      -0.007941625653463628,
      -0.003223705913065867,
      0.0020380713959212756,
      0.0024815525801176845,
      0.004625619388841675,
      0.004106379963888128,
      -0.0034862342357481844,
      0.002122581690899347,
      -0.0005532661262591936,
      -0.006581814450443137,
      0.0018165699529307101,
      0.0009439550532934199,
      0.013232361189074199,
      0.0038488089724027235,
      -0.007424865422902256,
      0.027183370224870683,
      0.01024694937804304,
      0.00565564066685616,
      0.006836634693113439,
      0.003908279541986685,
      0.007071052461539293,
      -0.007189551573002677,
      -0.005113835894800366,
      -0.008206012264995025,
      -0.001912668276842239,
      0.006339386040745261,
      0.004630419972642941,
      0.0050543005701639875,
      0.003651712246958313,
      -0.0052524276888033855,
      0.012153224195800526,
      0.00010917037451382024,
      0.0023241066599602807,
      0.01452136588726714,
      0.002741122259386112,
      -0.0015561200615112976,
      0.0017947890545655426,
      -0.004262303033941252,
      -0.005780013165701459,
      -0.008817276871438523,
      0.0058903660659146715,
      0.0040846398762160166,
      -0.0015032547693510114,
      0.00556140195794675,
      0.005914620016888853,
      -0.004579945061635533,
      0.013212858978475439,
      -0.01751200931176243,
      0.007560398597453158,
      -0.008615460489969128,
      0.0004104758927944811,
      2.560750370341203e-05,
      -0.016079062338489134,
      0.005490740350393038,
      -0.0011241240211432024,
      0.0011105482697720624,
      0.0,
      -0.006424985474966359,
      0.008452446105883415,
      -0.0038412795868504913,
      0.0069289268754037315,
      -0.008459191067272291,
      0.004915294640887825,
      0.001312276446947276,
      0.005173590621585595,
      0.010007376828706714,
      0.006653558392155253,
      -0.005221085715498476,
      0.0045647083075673455,
      0.0059694163886098725,
      0.009663631931362285,
      3.132263322064558e-05,
      -0.008035112630713522,
      -0.0043636596157396994,
      0.008580399790321871,
      0.002357531757826069,
      -0.0037743948913949357,
      0.006761912499802838,
      0.012088486024738944,
      -0.01497583993907308,
      0.005108557351348966,
      0.002419866480736583,
      0.002026521796741349,
      0.0021911534505931595,
      -0.008725293564201337,
      0.004643496602435435,
      -0.0024486154250191175,
      0.005913568013481209,
      -0.010226587071319373,
      0.004691084979655429,
      -0.002263662586721398,
      -0.004860866193836421,
      0.016684549260626128,
      -0.0009471721148871397,
      -0.013958896628441627,
      -0.0280229869035591,
      -0.015379144607906218,
      -0.022676679941551075,
      0.008636834794958552,
      0.025265517077270604,
      -0.017975020448045047,
      -0.001326364301438669,
      -0.0037057552812168426,
      0.0032248402974640934,
      0.005924714810767017,
      -0.002604038382850333,
      -0.0045527132708518365,
      0.007641331519111297,
      0.0045612226710638,
      0.001036046653531684,
      0.011329488628072714,
      0.005189216461996269,
      -0.008351877201771569,
      0.003783998679422601,
      -0.007644066336402757,
      -0.006172093094007076,
      -0.0015871187522584324,
      0.018943901512916736,
      0.001109224957995501,
      0.008391178897940709,
      -0.005969681895976654,
      -0.001100405287557219,
      -0.002772260882495405,
      -0.004588801703369353,
      -0.0010840845474159783,
      0.0057809125702725775,
      0.009650777610508197,
      0.0004582940021316768,
      -0.014433559926552882,
      -0.00429031007218728,
      0.0059862476270884915,
      -0.010038705272835315,
      -0.0067234777146639385,
      -0.0052229612755430406,
      0.00938159874074101,
      -0.001815661448569335,
      0.010033296159884323,
      -0.010358961009092012,
      -0.0037258288935981612,
      0.0006740158269672337,
      0.012902974791660212,
      -0.014749885249475285,
      0.0059978931957225855,
      -0.02689189342173929,
      -0.004798316378665671,
      -0.002436433261450801,
      0.0055189965632221815,
      -0.005525190922743652,
      0.006027601532717462,
      0.004054537974260196,
      -0.00894725974388158,
      0.00135061972131715,
      -0.0016955425193163165,
      0.003942989875991719,
      -0.010427272901742462,
      0.0016244163847593525,
      -0.0015307742230206555,
      0.007143572229526973,
      0.0029014322837094225,
      0.008632224551375677,
      -0.009125187548706216,
      -0.005206492418475353,
      -0.003354173968138134,
      -0.014528572410704968,
      0.006653782565965881,
      0.006937487470865198,
      -0.0008442236882363244,
      0.012278435829713994,
      -0.0013780698183423145,
      -0.0020953881611619415,
      0.005137965913782993,
      0.005637687241637795,
      0.0018995000322980617,
      0.0014937627768262687,
      0.010466397580291602,
      -0.0023419057270840306,
      -0.007441643353146449,
      -0.006232691904867332,
      0.015104262173688189,
      0.002890190699733503,
      -0.01520423977848062,
      -0.00032083191407594806,
      0.0032134728970329633,
      0.006845368263975057,
      -0.007434758198224781,
      -0.0005371604954277541,
      0.01210038494034679,
      -0.008934173878900187,
      -0.0028048449249010753,
      0.0016598662815345622,
      0.007466008665721489,
      0.00929297048843382,
      0.002005199850424755,
      0.0026006145510262427,
      -0.0032601649508110448,
      -0.0005662119298816382,
      0.0009542978852475963,
      0.00350166827579909,
      0.019208877222259793,
      -0.013299410759618444,
      0.002566824249087448,
      0.02982121715999116,
      -0.0022329472611102045,
      0.007989039977871993,
      -0.013121320362537083,
      0.004674598774514838,
      0.004204200301039646,
      0.0016908293102814345,
      0.011975762294051414,
      -0.022064638845784235,
      0.004019404865322341,
      0.005778652344092849,
      -0.017972111929390633,
      -0.0012394113869433933,
      0.01488661027864715,
      0.0037071463105483593,
      -0.003054081084712233,
      0.004627470112639,
      -0.0020145260046262265,
      0.0033187176767337503,
      -0.000781442623844747,
      0.005468634058542526,
      -0.003549494185649749,
      0.01812250015758234,
      0.014425399782262384,
      0.0022386316265069132,
      -0.005018064810179393,
      -0.03225892327395524,
      0.010963023946550958,
      0.001256823956739493,
      -0.005002815261893738,
      -0.0021885614389562063,
      0.003138346869274787,
      0.0042646402581864905,
      -0.006223558289719993,
      0.00044588195415268836,
      -0.008685965888673161,
      0.009660375483016992,
      0.002621230933512466,
      -0.00577480758812879,
      0.0023027420926255804,
      -0.01579426201859939,
      0.010312830774184916,
      -0.01696613661136153,
      -0.003558506492299107,
      0.004346124666330621,
      0.008460222169613594,
      -0.0031506768119009083,
      0.022001718412591065,
      -0.011282576827380871,
      0.00812545077939945,
      0.0022895776565586647,
      -0.00023734582179324733,
      0.002789992050688081,
      -0.011334719131165329,
      -0.0005265813620763834,
      0.007815470924033757,
      -0.018829358705364237,
      0.020168804271089386,
      -0.00031138882334056793,
      -0.017809976801408892,
      0.005734124254392139,
      -0.025358328986747843,
      0.0026441723948659964,
      0.003760902058765783,
      0.006548398607979798,
      0.00908374352146567,
      -0.0019495128164936306,
      -0.00017083955224768337,
      -0.005326857485505606,
      0.008425968833899563,
      0.006328732535396817,
      -0.007084882723236088,
      -0.004169012362639263,
      -0.009942415843419102,
      0.008379428137469565,
      -0.004161547122807074,
      0.003881171831722017,
      0.0023532075900704603,
      -0.014250452094275341,
      0.01743768394290714,
      0.0028001096719625384,
      -0.0017305657408210574,
      -0.00833621970022876,
      -0.0036963843232182725,
      -0.008691810650168153,
      0.0023642197283122593,
      0.010120907256137379,
      0.0042937960748399345,
      -0.0028889130885321255,
      -0.0007781346725240097,
      -0.0009543691944545353,
      0.001538525468076214,
      0.002110685397036673,
      -0.00043019042150606394,
      -0.0008198275864652913,
      -0.016528955495656573,
      -0.005289691196917624,
      -0.0016267727156706751,
      -0.0016276056355373585,
      0.004880229414748682,
      0.021049293732118935,
      -0.008453040242557342,
      -0.0050223897786751525,
      0.008812678813111282,
      0.013658263469926914,
      -0.015444992662998432,
      -0.001836209099254954,
      0.0039350185412118,
      -0.0006676306098042595,
      0.0058196331177001745,
      -0.003910299005952282,
      0.0018659995609631415,
      -0.0062046233698239035,
      0.004303114311984851,
      -0.007834501758664368,
      -0.005105316083872512,
      0.006000267684639097,
      0.008731702599616024,
      -0.006435747237093762,
      -0.00710974623058161,
      0.0006359301193125015,
      0.01318264281650387,
      0.002815935536101045,
      0.003338492541678151,
      -0.018599568845530524,
      0.004312919191356088,
      -0.006518042981494824,
      -0.011935239109880673,
      -0.0012225232097832887,
      0.0032651002693909023,
      0.005499377154302108,
      0.00542003415460732,
      -0.007398309550507772,
      0.005690698523373484,
      0.0037155337358321205,
      0.0009828909592024637,
      -0.007098023053778936,
      -0.0016157115244723093,
      -0.0004177896834624304,
      0.003208017064385566,
      -0.00497470324785677,
      -0.000492962063487593,
      0.00736291019337403,
      -0.0031309727364204265,
      -0.010845398834473649,
      -0.007218173418413378,
      -0.0026658927232542868,
      0.012589037476277893,
      -0.00630840870500717,
      -9.211762117850288e-05,
      0.0017260009195258872,
      0.00021437116355120468,
      -0.005980252347520232,
      -0.007386129974725456,
      0.005845894487719914,
      -0.0003883925697443796,
      -0.014574807846349997,
      -0.012613469352738157,
      0.008177256763787914,
      -0.005379920124838186,
      -0.011361726934131474,
      -0.007138006147158537,
      0.01588009309582635,
      0.005660358579440079,
      0.0028617016006209483,
      -0.013580558218669082,
      -0.0007506625561915795,
      -0.006318117967939575,
      -0.03076045129082158,
      0.002142120636889999,
      0.013468821635376613,
      -0.012156327535939532,
      -0.0017689698105859235,
      -0.006093935540172478,
      0.0012580584151074565,
      0.010526810884415625,
      -0.0071114508036230544,
      0.0017257798398291832,
      -0.005002335780845066,
      0.005421000734303299,
      -0.005728439067026908,
      0.0060223456584154,
      -0.00730612465939563,
      0.005751094561222926,
      -0.012515180656620675,
      0.019294334055418437,
      -0.016955765217359777,
      0.013608120571777732,
      -0.0044902866656187255,
      0.007722214922464676,
      -0.0011943437039048893,
      0.00894073242453352,
      -0.005591385310466794,
      0.013453888546930012,
      0.006756171367885229,
      -0.006918181488804241,
      0.001037168850876862,
      0.002893884400401578,
      0.012595370975151506,
      0.005734434446095821,
      0.006140472870655159,
      0.005976684496494739,
      0.008938663790399995,
      0.00431148826492878,
      -0.0029106452658430597,
      0.0015751939524982308,
      0.010711352090780661,
      0.00018582931685354222,
      0.0058384375223420664,
      -0.00258693188640456,
      0.0038454183547041395,
      -0.002143873154520903,
      0.007406912279561576,
      -0.0021575289054250914,
      0.011239461021671754,
      0.0015727870428067924,
      -0.006082234054787448,
      0.0011451787258431162,
      0.01307655657243505,
      -0.009126816170174554,
      0.00035918074389355365,
      0.0008763597602028715,
      0.0040010802041606005,
      0.0017621648951676528,
      -0.005426975839143086,
      -0.0004944756673889535,
      -0.0034481541389498427,
      -0.009040713810291156,
      0.005066692419538963,
      0.0008131819018057276,
      0.0010566330681613374,
      0.0031363053772535594,
      0.010753402800453279,
      -0.0007806032362683913,
      0.004200189409998107,
      -0.004269454516942538,
      0.01267888178661752,
      -0.009252800132512522,
      0.007775859838531218,
      -0.008190267820720212,
      0.0045002602962420386,
      0.0102132216103312,
      -0.014083603249114333,
      0.009112693479795332,
      0.011183730343918485,
      -0.00925047068004856,
      -0.011511582475336447,
      -0.011460849698598544,
      -0.0006789804914544349,
      0.007191417215475552,
      -0.0015390487239250238,
      0.007679778004645969,
      0.0006748025770553153,
      0.0008129516563963673,
      -0.0008748355472774354,
      -0.01314156553338762,
      -0.005696310452228043,
      0.007114125912242165,
      -0.007837080623925274,
      -0.0022666582417625704,
      0.003439323419249915,
      0.0028606926581160232,
      0.0021380358476844373,
      -0.0036745469920555045,
      0.005957929186453785,
      -0.011024272351766042,
      0.010055845127246657,
      0.004836098505907864,
      -0.008935059321017392,
      0.010224830458620788,
      -0.014311263824406957,
      -0.0032481702132254402,
      -0.0019028068881264792,
      -0.016227951467722535,
      0.008333187787428349,
      0.0029999857274128905,
      0.00042826474600769727,
      -0.0072889999174974,
      0.0035639580681056464,
      -0.002291407528548207,
      0.002286672221344335,
      -0.0069142487140286665,
      -0.006102195980512503,
      0.006262064449901341,
      -0.00023662091359660488,
      0.008746512292369543,
      -0.005555383868774011,
      -0.004100450186700317,
      -0.00204617716461582,
      -0.006639959402438035,
      0.008288860822699851,
      -0.004517171610998103,
      -0.013467735786075637,
      0.0030934844480202993,
      -0.0010689420678398729,
      0.010339308038929023,
      -0.008259113471038955,
      0.013196880642297047,
      -0.000990136354155663,
      -0.0013694333997155107,
      -0.00265826041879038,
      0.005719217988285445,
      -0.0028315715773587014,
      0.005238718486616735,
      -0.0036089910513234496,
      0.0023450846164295084,
      0.0034565427394682674,
      0.014816234851945947,
      -0.002922556191789391,
      0.013453318318372612,
      -0.0037095865077936044,
      0.002240714868637686,
      0.009004849281108044,
      0.0007055621255857967,
      0.006187960117441251,
      -0.00879864048781451,
      0.0019229295242555516,
      -0.0006635336120781479,
      -0.00011463476992910482,
      0.008410999396549766,
      -0.004265806767194319,
      0.02849721860075639,
      -0.006173524483622007,
      -0.0063899355667877975,
      0.014105894958564772,
      -0.0017444745847806826,
      -0.008069469743805277,
      0.0008573300556294015,
      -0.0001760168731606882,
      -0.00776684572432672,
      0.013959740178334934,
      -0.0010260035618044742,
      -0.008690871358068925,
      0.004602092580084882,
      0.006963406245062478,
      -0.00673973711894749,
      -0.008401931407998288,
      0.016111591162751793,
      -0.0074729669027539984,
      0.004894724367507204,
      0.0018458032714544948,
      0.006859834113995398,
      0.004409328624454843,
      0.0006926946362485049,
      0.0017218318889672482,
      0.004939194651486439,
      -0.0009118791109398764,
      -0.0024485938918633134,
      -0.0035121100331617023,
      -0.003304796509992595,
      -0.002365360211367808,
      -0.01356273648461674,
      -0.010490821591731609,
      0.0002604369176991031,
      -0.01411017837757244,
      0.005499874281412695,
      -0.0036559253147159334,
      0.017940378217312133,
      -0.004198032244889187,
      -0.01107877739969878,
      -0.012514872058455742,
      0.0002169518461730597,
      -7.210601376529364e-05,
      -0.004670561843864944,
      1.6514403345102684e-05,
      -0.0002384462591846306,
      0.008971245553669717,
      -0.0020945535742102894,
      -0.0034811435346336706,
      -0.004250913417865069,
      0.003679244787493934,
      0.0002572217257400594,
      0.014548126695722747,
      0.015566533852556443,
      -0.002870079089384364,
      -0.010106713964862705,
      -0.0006087015874799174,
      0.006112959217256071,
      0.002056723377260858,
      -0.016013467098808902,
      -5.0269802616772865e-05,
      0.0052901556729175086,
      0.0,
      -0.0050016995453291985,
      0.0,
      -0.002474118750409506,
      -0.0026082315956628566,
      0.00932520062706161,
      -0.009889987770404687,
      0.015027124876945762,
      0.017338963505198847,
      -0.0010488224040640516,
      -5.0269802616772865e-05,
      0.001104028444282339,
      -0.0033779893449089734,
      -0.007815829067425496,
      -5.0269802616772865e-05,
      0.0029074487163659826,
      0.0017229939327184317,
      -0.0024704423240893255,
      0.0,
      -0.003536891681942822,
      -0.0033571371611895353,
      0.01954629253469349,
      0.008631201450538984,
      -0.0062757317085158455,
      0.0,
      -0.008730813730457912,
      -0.0011775906931701858,
      -0.004401798210666147,
      0.0,
      0.005539828770859002,
      0.008631201450538984,
      0.00662881925148601,
      0.0005023792768890408,
      -0.008540761705599616,
      0.01802777762146706,
      0.0032626592184165936,
      -0.007237629945010251,
      0.011845077017012873,
      0.0,
      -0.006316437573219014,
      0.0027443474275838597,
      0.006691420675790284,
      -0.007736512037648895,
      0.004339754650959274,
      0.0,
      0.00017376019285861543,
      0.0,
      0.008514685441465015,
      0.0,
      -0.000986061194313404,
      0.009108051633494783,
      -0.003370386212572198,
      0.006957516075719509,
      -0.008927051244965347,
      0.006270375445661933,
      0.002939901004746831,
      5.0269802616772865e-05,
      -0.005120555180481514,
      0.004347035570161212,
      0.00649839538235587,
      -0.0024436679629277758,
      0.0062111914155110965,
      0.0,
      0.003805717822002305,
      0.000282937801784877,
      0.005295925495969506,
      -0.005385690830478471,
      -0.004182870871335641,
      0.0076157212781067865,
      -0.006119808788386281,
      0.0,
      0.0032466766229212363,
      0.0,
      -5.5998907118338095e-05,
      0.0,
      -0.002105664038588265,
      0.005262326824212634,
      -0.009069698347880295,
      0.0,
      -0.0012361882567005489,
      0.008185951700022393
    ],
    [
      -0.0022529052267202467,
      -0.004365929039329274,
      -0.004304327340871581,
      -0.0052858822141714674,
      -0.0006860194913674658,
      -0.0037581260786608882,
      0.002655578645708826,
      -0.01200929907802333,
      -0.002420637497907891,
      -0.005120127103498717,
      0.006132458155280454,
      0.010713083795597132,
      0.011848100383750546,
      -0.01330636282800509,
      -0.002860456730489508,
      0.009157044795865567,
      -0.010655958073337461,
      -0.0028322541050574412,
      -0.0006036587009197127,
      0.006367455892516299,
      0.003043993956049888,
      -0.006471747804232683,
      -0.0009813548473564058,
      -0.002354507155559334,
      0.0066751089924071685,
      0.007021758791768772,
      -0.004148058107364373,
      0.009860511213784725,
      -0.003388681530945849,
      -0.00151200711274045,
      -0.008026895248111517,
      0.009404423816728175,
      0.003049225513953206,
      -0.002008589210024081,
      -0.010282208551077598,
      -0.001032173853561177,
      0.011890822172577892,
      -0.001483098609149977,
      -0.0008337673661113426,
      0.0020008015295050136,
      0.004402184740992751,
      -0.0021943524688686324,
      -0.020108285420272404,
      0.0076268995048565215,
      -0.011296042621166737,
      0.00158722830271225,
      0.0067176307439369585,
      -0.008814177711163771,
      -0.0030582191021122362,
      -0.00043811579588056354,
      -0.005521595675157018,
      -0.0003115938732957881,
      0.00037537361508488724,
      0.0003563142217273889,
      -0.0032260900571592795,
      -0.014621830867327155,
      -0.001101942114186343,
      0.011012788244891911,
      -0.0026928943229457877,
      -0.0024342820730868164,
      -0.0021642625724377037,
      0.008649497358922457,
      0.0009348594297711244,
      -0.004977452082024288,
      -0.006586633087190284,
      0.00035102843444589796,
      0.005967767321012424,
      0.013668350648028016,
      -0.004893071353808546,
      0.00017438687589497974,
      0.005301433755224808,
      -0.012325022528056399,
      -0.0040499902171803465,
      0.0009971230693323488,
      0.00422737357273628,
      -0.0017504070707620098,
      -0.008874949018087957,
      -0.0006646022683152459,
      0.003095966982094332,
      0.004682344870224813,
      -0.0022799086904041754,
      -7.414552610776047e-05,
      -0.006997825991260277,
      0.01097788989942998,
      -0.0011880404328522922,
      -0.003495312859978821,
      -0.0030339643543212795,
      0.02210672558409843,
      -0.014617678212899745,
      0.0039045355031536895,
      -0.0016243136065405843,
      0.004739551861522251,
      -0.0032904970183736935,
      0.004932864300271063,
      -0.002908196813216657,
      0.0014843456216870005,
      -0.004561943854711675,
      -0.008288788065716104,
      -0.00024797692077858284,
      -0.0007960728434246259,
      0.010116313542722175,
      0.003026771742709692,
      0.0041612446980375944,
      0.003817621830879896,
      -0.00814534991111288,
      0.012213803506222448,
      0.010983395513782582,
      0.003282717370699586,
      0.010900153657466495,
      -0.0127043610820008,
      0.010798040692480528,
      0.015576004676437405,
      -0.0069377774092764955,
      -0.006845891180844773,
      0.00415358032812591,
      0.009295327145072065,
      -0.004072898734921745,
      0.0006674570636413818,
      0.0012990874988997845,
      -0.0019820949303887797,
      0.007759206045215093,
      0.005395800322131887,
      0.0033654447215302166,
      -0.00540767001336565,
      0.0030647188496877374,
      -0.004908184196252052,
      0.0003600391273216104,
      0.0020825838118220014,
      -0.001692512198664604,
      0.015495304445116409,
      -0.009963938833357437,
      0.01697388231470617,
      1.0254658929011912e-05,
      0.005306747639307236,
      -0.0030248792794826318,
      0.006709041206151048,
      0.0013335572498904922,
      0.00013092526809648728,
      0.00025021422504572263,
      -0.0017725797834759085,
      -0.006079994862670129,
      0.0036136822056373327,
      0.008795937943109417,
      -0.0032260900571592795,
      0.0016220433474034887,
      -0.004303026458071344,
      0.008083786948864538,
      0.004894662067796174,
      0.005783907838938201,
      -0.0008925314733589536,
      0.0029916676499921486,
      -0.0038820219848620975,
      -0.005813121030343872,
      0.004194506483048431,
      0.006633660959466917,
      0.010115190610956929,
      -0.001168382205736657,
      -0.0026371318218797167,
      -0.006826639169869378,
      0.004933154030619215,
      0.006401634671790197,
      -0.0072296994513746165,
      0.0018659435811612638,
      0.0041764046158623905,
      -0.001806347990984057,
      -0.001235776606793129,
      0.008273964279271278,
      0.008114003519118987,
      0.0006804524748050755,
      -0.004540914051808464,
      -0.0015729250677119864,
      0.0046732471355549,
      -0.0011789376539006792,
      -0.0009457841697736095,
      -0.01106912847052865,
      -0.00048362521690768854,
      0.008182840957039798,
      0.0015339645892467671,
      -0.0022594822988176487,
      -0.003300749221950743,
      -0.006633502412517307,
      -0.013156592841162466,
      0.007486419883390839,
      -0.001789349479061532,
      0.0005470658780210177,
      -0.0014281116697953625,
      -0.0037023196189455085,
      0.0051837252479083945,
      -0.012328476985864263,
      -0.008162815653491445,
      0.00781452376133366,
      -0.018377792069558314,
      -0.015083470181205708,
      -0.0019856740839370337,
      -0.01763880296880767,
      -0.005272061946509134,
      0.0019271516261809654,
      0.007747518562969516,
      -0.000716397959948748,
      0.00250490987454977,
      -0.0013835003219912555,
      0.0027961988098314247,
      -0.003645013160213254,
      -0.0015244413378832022,
      0.003417355747361107,
      0.008643964935656135,
      -0.005171621345176118,
      -0.006535184710760424,
      -0.002339962537023598,
      -0.013925782499390995,
      0.006945434224889128,
      -0.014272767006577204,
      -0.0074938317688712465,
      -0.007850173796257244,
      0.00012171614317416927,
      0.010859542328850707,
      -0.0064710194741534844,
      0.0009225568755217013,
      0.0028608264080152773,
      -0.008046744151370699,
      -0.003750217797022971,
      0.005333754197206813,
      -0.007642322642671719,
      0.016807039246187566,
      0.000567948006189124,
      0.009629227179032748,
      0.00010909525018908458,
      0.0005039108689050985,
      0.011690980301172917,
      -0.0025595736586966743,
      0.00016302195945648993,
      0.005754063242354509,
      0.0,
      0.007206010504066069,
      -0.006162064873630389,
      0.0025882687128598422,
      0.01005527954571737,
      0.010607081796071324,
      0.006628393660427828,
      -0.0013733361946352475,
      -0.004473707289282309,
      -0.010065764125172324,
      -0.00794548024048943,
      0.002766123961931162,
      6.54771687600897e-05,
      -0.004461696973790833,
      -0.011092717190232821,
      -0.005472753576974397,
      0.002731570263611351,
      0.007635253652062108,
      -0.00877345039058473,
      0.002863772171988403,
      0.014788175448768792,
      -0.013131935868326816,
      -0.004084857418908544,
      0.0035895027759933955,
      -0.004141618176633271,
      -0.0026532327200593274,
      0.0015263248906254654,
      -0.004401697932108581,
      -0.0003356088349828129,
      -0.008385955331667637,
      0.001566826801259574,
      -0.006524362786009048,
      0.011980555729808691,
      0.0015479197426573274,
      -0.0029051585221901793,
      0.003562711154206445,
      -0.013137693832279283,
      0.004037888119618881,
      0.026026717799100357,
      0.0125882135769274,
      0.009047912350499596,
      0.032442846935974316,
      -0.011410012527306524,
      -0.022088785554617667,
      0.005879217557778554,
      0.008326252594727909,
      -0.0038915187607869383,
      -0.0002917742669046276,
      -0.003756275423341528,
      -0.004825375504408275,
      0.0034855015529094767,
      -0.008121860415862724,
      -0.0008052335472120927,
      0.007385787530074924,
      -0.000943148001021747,
      -0.010318624872309926,
      0.012079967398305426,
      -0.0023702850441185324,
      0.009162161492106304,
      0.00798527030749116,
      0.00652802988733813,
      -0.021406711094310846,
      0.00033536573361583546,
      -0.008519544765262914,
      0.008420147653025109,
      0.001578766607673618,
      0.004723689193539448,
      0.00783802096989988,
      0.00491916061135197,
      0.005397003690502605,
      -0.009403081310621706,
      -0.003338696353233783,
      0.019943252678532763,
      0.0027195123760378223,
      0.0024558597225681294,
      0.026305760130911605,
      0.0019409818791042194,
      -0.00253498904116869,
      -0.012155531375682729,
      -0.0009631241471357775,
      -0.006998035524356466,
      0.014505433263683403,
      0.008595943272452142,
      0.0008690951856749207,
      -0.003197303169932525,
      0.00833110109616561,
      -0.0017156090333698064,
      0.016743786636526356,
      -0.007226701717517252,
      0.0007299498145950555,
      -0.013611550326101481,
      -0.007971029238263079,
      -0.005593058301924635,
      -0.006981459785184849,
      0.015299069795297961,
      -0.0030523871115766352,
      -0.0010365380944622853,
      -0.0037170388742907186,
      -0.0018103123072959442,
      -0.0018574186745151768,
      0.005222376274029344,
      0.0019254942590786323,
      -0.003055596045135397,
      -0.01312472265270204,
      0.009622886840546109,
      0.007247703639187942,
      4.356097206197302e-05,
      0.0036387888618922485,
      -0.005551945290701487,
      0.007322805335922683,
      -0.00020821963237340537,
      -0.008482937184291809,
      -0.0017818146839938263,
      0.004113219162290395,
      -0.010222044045736877,
      -0.006864294662263077,
      0.005823664548454992,
      0.0011974543114042916,
      0.0016037521620053128,
      -0.0003582436176676391,
      0.010666333345534268,
      -0.005348274358832167,
      -0.002669226059793999,
      -0.01359888999783949,
      -0.002160649006591667,
      2.8959304142286373e-05,
      0.011023709532489311,
      0.0034416875872984526,
      0.0004673888925245248,
      0.006458679877892858,
      -0.011588725812451307,
      0.014103471461633264,
      -0.004124701734199831,
      -0.00014406539921520432,
      -0.0018123896872779908,
      -0.004800854824077745,
      -0.0010576409528195952,
      0.009008057997468594,
      0.0020364156262791065,
      0.0012846791079753552,
      0.0017129352619748189,
